elements: [Ba, Cu, O, Y]
E0: [0, 0, 0, 0]
deltaSplineBins: 0.001
embeddings:
  0: {ndensity: 2, FS_parameters: [1, 1, 1, 0.5], npoti: FinnisSinclairShiftedScaled, rho_core_cutoff: 1, drho_core_cutoff: 1}
  1: {ndensity: 2, FS_parameters: [1, 1, 1, 0.5], npoti: FinnisSinclairShiftedScaled, rho_core_cutoff: 1, drho_core_cutoff: 1}
  2: {ndensity: 2, FS_parameters: [1, 1, 1, 0.5], npoti: FinnisSinclairShiftedScaled, rho_core_cutoff: 1, drho_core_cutoff: 1}
  3: {ndensity: 2, FS_parameters: [1, 1, 1, 0.5], npoti: FinnisSinclairShiftedScaled, rho_core_cutoff: 1, drho_core_cutoff: 1}
bonds:
  [0, 0]: {nradmax: 6, lmax: 3, nradbasemax: 10, radbasename: SBessel, radparameters: [5.25], radcoefficients: [[[1.8846475623609602, -1.122971997885009, 0.78094727880853909, -0.029667607188863038, -0.30686310094127756, 0.45750105934638197, -0.35108050968782223, 0.21158036422802731, -0.072638754196117997, 0.022161253530580027], [1.6506897999182846, -0.34072475131487806, 0.23555159092274375, -0.098419586213773433, -0.17029905098640594, 0.47382735636384699, -0.49955877432847928, 0.37694450930211681, -0.16171976383712336, 0.057142674610648703], [2.0394398695431075, -1.0741275431743438, 0.26651134482775829, 0.24681321694835531, -0.62183466364183571, 0.67750065085784972, -0.60033835919446532, 0.4123186974402922, -0.16774666122331533, 0.046429296856838942], [1.5231816984867084, -0.28734577061951461, -0.13181158698986503, 0.30918313233722144, -0.20759601823387278, -0.0085484816065372945, 0.10642141650159669, -0.091185057186645629, 0.098552451815610467, -0.032114568816803184]], [[-0.54526095264512231, 1.0059663242447983, -0.20608639664454317, 0.61140341422228373, -0.2124205487265716, 0.16597206469954348, 0.04586566694468705, 0.038745890302744661, 0.022119076862693241, 0.027373861736260555], [-1.1002139320978646, 1.2227296988562404, -0.3403324537812531, -0.19168344106633911, 0.40854766994882291, -0.48989644012595229, 0.27573139620026826, 0.0150938783497082, -0.071698076791240212, 0.053510805931925087], [-0.7027828221103456, 1.2516919705466554, -0.27867597826598539, -0.30911670022582743, 0.47112802090327149, -0.35876369951631087, 0.12155190348479911, 0.00036713514407454829, 0.014730382865656002, -0.0025553515383888166], [-0.186568714270855, 0.84352339973604873, -0.082805972682524209, 0.02243735874084743, 0.19771036267000025, 0.10264016199129551, -0.15336432947197723, -0.055286158942443875, 0.18480368833344019, -0.12061956015083501]], [[-0.29881416481031225, -0.18406306477953818, 1.3063954032547573, -0.27807941654101581, 0.36970784419055985, 0.13078825493238314, -0.059820226767951894, 0.31513150213782748, -0.11004665034736835, 0.090768910905241945], [0.19960608670603119, -0.16882973509424493, 0.69349772821499711, -0.016850359230254058, -0.067969384132582064, -0.18222335116008265, 0.23350150605867595, -0.072616558106040965, 0.051238826726484069, 0.040417599858561852], [0.038712841537343869, 0.17649898182539037, 1.0303788986315052, -0.1373840723138034, 0.056603810746645986, 0.11013478351148498, -0.16006710586539888, -0.28326102551357607, 0.2245578609695148, -0.061941096405617332], [0, 0, 1, 0, 0, 0, 0, 0, 0, 0]], [[0.55279343404110393, 0.1020924808445732, 0.42947453603568986, 1.3050392154383019, -0.43721746123220251, 0.30369186243221225, 0.18396762986443896, 0.094034960373608714, 0.030131867884359249, 0.082220839517528496], [0.58346220086873712, -0.063267040309944761, -0.27109990957885671, 0.94739909065736694, -0.47774533522319557, -0.051999881150979865, 0.34163277238398215, -0.1935497570623195, 0.069606697257338743, 0.017754550618533652], [0.20137701251847775, -0.0425774709178489, 0.14344486011747037, 0.97208055356825762, -0.094570083192399249, 0.48027280427663555, 0.11260997330783069, -0.10361452636525008, -0.012939799994999576, -0.045663041542197531], [0, 0, 0, 1, 0, 0, 0, 0, 0, 0]], [[-0.74968722199169791, -0.56171767494262981, 0.012507882992873889, -0.30067261597990369, 0.30360955539348272, -0.28196659640129906, 0.044478057314776769, -0.00062183246705339889, -0.04721394717034802, -0.0037908910390768882], [-0.25069345245819247, 0.18667366118476453, 0.039805260336335163, -0.31537722468926543, 0.73978169811229633, -0.51782676651938375, -0.35691578671105595, -0.080146721873647089, -0.085290624738222645, -0.23590188692414943], [0, 0, 0, 0, 1, 0, 0, 0, 0, 0], [0, 0, 0, 0, 1, 0, 0, 0, 0, 0]], [[0.74402244688702079, 0.24658273265017203, 0.42378982523309705, 0.37340170051106225, -0.56012681745818282, 0.46597267202344322, -0.22749426538458145, -0.14161163480256492, 0.17816609866448174, -0.073462407321443629], [-0.036417306736756569, 0.15526861030291095, 0.12086668716652947, -0.021375165587669703, 0.061288522792526216, 1.0139661430543365, -0.1420197510005487, -0.03409886552711542, 0.29269933369825246, 0.16256384261763518], [0, 0, 0, 0, 0, 1, 0, 0, 0, 0], [0, 0, 0, 0, 0, 1, 0, 0, 0, 0]]], prehc: 1, lambdahc: 1, rcut: 6.5, dcut: 0.01, rcut_in: 1.6941506812518712, dcut_in: 0.10000000000000001, inner_cutoff_type: zbl}
  [0, 1]: {nradmax: 6, lmax: 2, nradbasemax: 8, radbasename: SBessel, radparameters: [5.25], radcoefficients: [[[1.0676960931355233, -0.66164812218870206, 1.2292326000068901, -0.74797231124132124, 0.50650956166208916, -0.22814075689916233, 0.089989369058095389, -0.015101712620312608], [1.5467258692769312, -1.2669668214875391, 0.88684034163190573, -0.49512669997523073, 0.20908613228497808, -0.084133094162451849, 0.024690169092507031, -0.010396801585470541], [1.5000101531315186, -1.5499273550031798, 1.1610001149212994, -0.95809291262853069, 0.60859285172722177, -0.33024199658673742, 0.13708769445370997, -0.020190124499189666]], [[-0.92059340881032348, 1.2120602150433346, -0.15316715722360721, 0.11901279474397151, -0.092572744043542002, 0.051248997900803457, -0.050748189948779977, 0.012623465475990204], [-0.82078102584543955, 1.2818636618697123, -0.72673767832377401, 0.57104299285268101, -0.55477056668476932, 0.24733798574998214, -0.16872080533852438, 0.023009345232482652], [-0.31592169617681326, 0.96620511947291998, -0.57152057289193747, 0.34637952289821916, -0.29596622293851471, 0.23213032545034579, -0.23741495220450687, 0.12395012321872535]], [[0.88441982657728835, -0.15449758784825407, 1.0040363316991079, 0.082254405442568471, -0.39157359421519161, 0.40422735890947459, -0.22626398129444722, 0.078782953288827146], [0.1025154292276306, -0.70299278904430618, 0.86933284427961377, -0.53919939434891584, 0.0077894528126072667, 0.0026887470791415809, -0.1109005309624677, 0.0060918226460410828], [0, 0, 1, 0, 0, 0, 0, 0]], [[0.74628042579379728, 0.38552647292424191, -0.59251586518584975, 0.47528018728028404, 0.21356901061996983, -0.2097606034428123, 0.22451775861888448, -0.077508232724860543], [0.225173285518492, -0.14521704978383604, -0.61208757703842609, 0.84041079652562567, -0.36846103572047278, 0.03769297968214564, 0.095341184085042732, -0.2128384004724897], [0, 0, 0, 1, 0, 0, 0, 0]], [[-0.21531471782919198, 0.80963127390112954, 0.63319444350585008, 0.010711920803143603, 0.61902381825043851, -0.43123587970325544, 0.37730072162524658, -0.12128852930356304], [0, 0, 0, 0, 1, 0, 0, 0], [0, 0, 0, 0, 1, 0, 0, 0]], [[0.18800793953403433, 0.30939951756991441, 0.32159211046137298, -0.033659700541066914, -0.35591041068398793, 0.57956167954579241, -0.20163235178626535, -0.05246183196588905], [0, 0, 0, 0, 0, 1, 0, 0], [0, 0, 0, 0, 0, 1, 0, 0]]], prehc: 1, lambdahc: 1, rcut: 6.5, dcut: 0.01, rcut_in: 1.5519667006559754, dcut_in: 0.10000000000000001, inner_cutoff_type: zbl}
  [0, 2]: {nradmax: 6, lmax: 2, nradbasemax: 8, radbasename: SBessel, radparameters: [5.25], radcoefficients: [[[0.60017783295813587, 0.04585467741841967, -0.30403210666138936, 0.32655003027511753, -0.24295064737537211, 0.14322312285834454, -0.064102720883064346, 0.016491663583582977], [1.2411153523145515, -0.69592019644143865, 0.45825944975092547, -0.35290990443364778, 0.25798399474679168, -0.19359634955135499, 0.1458439155772201, -0.069309429388137056], [-0.42222745153151814, 1.1883190528578047, -1.3212495416638521, 0.97658934125130514, -0.51431509315186852, 0.21330985985422846, -0.061517823627951447, 0.021384409405708141]], [[-0.78347584501661749, 1.459199098841965, -1.0573637245530976, 0.57449810991206673, -0.26029294958264532, 0.083748617962927471, -0.002649543402454743, -0.011174298027777809], [-0.27113027805995094, 0.50910802094519181, 0.042273502306316671, -0.51392076136721809, 0.62022310264459068, -0.43061785273385528, 0.22561213458975435, -0.090387925025018287], [-0.57881787881505331, 1.0238788915583972, -0.51169996406587681, -0.011192297634541696, 0.2622327448469971, -0.25455666933630156, 0.164108297634213, -0.047043071854992395]], [[2.8322823357442797, -1.2346356405628738, 1.1410336965818959, -1.1549380053705145, 0.91336246759923967, -0.56161438082036352, 0.26582351002743915, -0.085842054902844189], [0.21013473424218646, -0.85328970642538871, 1.1717511681179325, -1.2961631633377071, 0.90703310680131644, -0.48579149461537258, 0.21047811539509789, -0.075231490016201108], [0, 0, 1, 0, 0, 0, 0, 0]], [[1.5518344096275885, 0.62619331688658642, -1.1833613404404728, 0.92083251125351695, -0.52364999393132372, 0.25598103700465424, -0.070135540768531873, 0.00062804118894158685], [0.056590422121731994, 0.77892972596625554, -1.1430131006181341, 0.85237084218942494, -0.7823694019250923, 0.53567005188951289, -0.22356666685370166, 0.004910581762597007], [0, 0, 0, 1, 0, 0, 0, 0]], [[-0.22895519452581803, 0.5953095973169571, -0.70655765299299622, 0.11355789515398669, 0.29226322067569971, -0.41686161788868986, 0.22476175194799045, -0.12050463628230151], [0, 0, 0, 0, 1, 0, 0, 0], [0, 0, 0, 0, 1, 0, 0, 0]], [[-0.24635342855425121, 0.19494351253226469, 0.91769107458128552, -0.18817541475436095, -0.22691888301484878, 0.95325069227172299, -0.27436873135926265, 0.19123587997690086], [0, 0, 0, 0, 0, 1, 0, 0], [0, 0, 0, 0, 0, 1, 0, 0]]], prehc: 1, lambdahc: 1, rcut: 6.5, dcut: 0.01, rcut_in: 1.3397600226807522, dcut_in: 0.10000000000000001, inner_cutoff_type: zbl}
  [0, 3]: {nradmax: 6, lmax: 2, nradbasemax: 8, radbasename: SBessel, radparameters: [5.25], radcoefficients: [[[2.5434132310822815, -2.3068232448505968, 2.0728795152959294, -1.4331849266651664, 0.88142389224764084, -0.37163547330486696, 0.11080746619540385, 0.0067424445334491609], [2.0275068956429991, -1.2442327216837412, 1.2840252117141981, -0.66362329603166526, 0.30805851573648324, 0.067949498323974053, -0.080722205460550756, 0.052520757553785852], [1.5480947207915565, -0.51848443041453873, 0.54444584351084324, 0.24233807626683376, -0.38404728872494831, 0.417641228520446, -0.23671852476146202, 0.12072472629323695]], [[-1.8374978906809267, 1.7240376102448969, -0.53479308313155094, 0.10791492397061053, 0.18091577758035521, -0.089461759611314376, 0.1005349428762191, -0.0035632256271558565], [-0.40526457158638779, 1.2054575607046103, -0.57010607234785216, 0.23769536739173897, -0.033083523320610153, -0.033741015648164827, 0.067296281459954005, 0.045825593036102973], [0.025431427973640432, 1.1664443984928818, -0.18428564472385373, 0.007594554496399712, 0.1883231751116195, 0.01074586920578908, 0.058419891341300385, 0.015070656358064767]], [[-0.13371358128855873, -0.79996073593456862, 0.75326150852846518, -0.23951355667268276, -0.11544838021443121, 0.15882165039989898, -0.24336511685759904, 0.16057557564832156], [0.25756591222653752, 0.15768297477364465, 1.036778175098457, -0.26836145247133691, -0.15969773023837905, 0.56859891592174705, -0.19350608128872707, 0.15289220014335134], [0, 0, 1, 0, 0, 0, 0, 0]], [[0.33645072462342451, -0.13043696938524929, -0.28931157969819449, 0.90394586376306951, 0.0062804718127661679, 0.21734438255494842, 0.052569135537397678, -0.059565950589310093], [0.23829570518319054, -0.058803589523604226, 0.13013406123327506, 1.0233583154305674, -0.51897083503020069, -0.40271928504081661, 0.12344179169814003, 0.29696882492436361], [0, 0, 0, 1, 0, 0, 0, 0]], [[0.090373630200850791, 0.17567467670725528, 0.020645806963400411, 0.0032047406587556661, 0.68790371744647183, -0.61110013275481745, -0.089790688267905483, 0.072044050045388899], [0, 0, 0, 0, 1, 0, 0, 0], [0, 0, 0, 0, 1, 0, 0, 0]], [[0.26282897045012699, -0.11217881430057022, -0.20728332437570651, 0.04243265269318916, 0.020264756569419888, 0.68130529901450432, -0.42802926298516097, -0.39716672067075104], [0, 0, 0, 0, 0, 1, 0, 0], [0, 0, 0, 0, 0, 1, 0, 0]]], prehc: 1, lambdahc: 1, rcut: 6.5, dcut: 0.01, rcut_in: 1.6953247867847252, dcut_in: 0.10000000000000001, inner_cutoff_type: zbl}
  [1, 0]: {nradmax: 6, lmax: 2, nradbasemax: 8, radbasename: SBessel, radparameters: [5.25], radcoefficients: [[[1.0676960931355233, -0.66164812218870206, 1.2292326000068901, -0.74797231124132124, 0.50650956166208916, -0.22814075689916233, 0.089989369058095389, -0.015101712620312608], [1.5467258692769312, -1.2669668214875391, 0.88684034163190573, -0.49512669997523073, 0.20908613228497808, -0.084133094162451849, 0.024690169092507031, -0.010396801585470541], [1.5000101531315186, -1.5499273550031798, 1.1610001149212994, -0.95809291262853069, 0.60859285172722177, -0.33024199658673742, 0.13708769445370997, -0.020190124499189666]], [[-0.92059340881032348, 1.2120602150433346, -0.15316715722360721, 0.11901279474397151, -0.092572744043542002, 0.051248997900803457, -0.050748189948779977, 0.012623465475990204], [-0.82078102584543955, 1.2818636618697123, -0.72673767832377401, 0.57104299285268101, -0.55477056668476932, 0.24733798574998214, -0.16872080533852438, 0.023009345232482652], [-0.31592169617681326, 0.96620511947291998, -0.57152057289193747, 0.34637952289821916, -0.29596622293851471, 0.23213032545034579, -0.23741495220450687, 0.12395012321872535]], [[0.88441982657728835, -0.15449758784825407, 1.0040363316991079, 0.082254405442568471, -0.39157359421519161, 0.40422735890947459, -0.22626398129444722, 0.078782953288827146], [0.1025154292276306, -0.70299278904430618, 0.86933284427961377, -0.53919939434891584, 0.0077894528126072667, 0.0026887470791415809, -0.1109005309624677, 0.0060918226460410828], [0, 0, 1, 0, 0, 0, 0, 0]], [[0.74628042579379728, 0.38552647292424191, -0.59251586518584975, 0.47528018728028404, 0.21356901061996983, -0.2097606034428123, 0.22451775861888448, -0.077508232724860543], [0.225173285518492, -0.14521704978383604, -0.61208757703842609, 0.84041079652562567, -0.36846103572047278, 0.03769297968214564, 0.095341184085042732, -0.2128384004724897], [0, 0, 0, 1, 0, 0, 0, 0]], [[-0.21531471782919198, 0.80963127390112954, 0.63319444350585008, 0.010711920803143603, 0.61902381825043851, -0.43123587970325544, 0.37730072162524658, -0.12128852930356304], [0, 0, 0, 0, 1, 0, 0, 0], [0, 0, 0, 0, 1, 0, 0, 0]], [[0.18800793953403433, 0.30939951756991441, 0.32159211046137298, -0.033659700541066914, -0.35591041068398793, 0.57956167954579241, -0.20163235178626535, -0.05246183196588905], [0, 0, 0, 0, 0, 1, 0, 0], [0, 0, 0, 0, 0, 1, 0, 0]]], prehc: 1, lambdahc: 1, rcut: 6.5, dcut: 0.01, rcut_in: 1.5519667006559754, dcut_in: 0.10000000000000001, inner_cutoff_type: zbl}
  [1, 1]: {nradmax: 6, lmax: 3, nradbasemax: 10, radbasename: SBessel, radparameters: [5.25], radcoefficients: [[[1.4518734207858723, -1.2082018267522487, 1.2314352850419663, -1.065348623382314, 0.77542870845602019, -0.4951331656921209, 0.29176312679001998, -0.11687348328055337, 0.036055760698150786, -0.0049726846419081228], [0.40618789082684714, -0.3634415655411542, 0.18227827996018742, -0.18005436973863365, 0.18655119390083152, -0.144771114122796, 0.12909636206964276, -0.10188350328073782, 0.046113264770126013, -0.018224120629752715], [-0.47796415163612771, 0.17431148084669762, 0.35242171338125028, -0.38811066600710836, 0.35244008399161902, -0.15914444582386142, -0.054161796073831654, 0.13085910741683748, -0.09388973087666827, 0.029957951467615155], [0.80323534728578916, -0.35831129561027009, 0.44972571286896446, -0.39452811760148743, -0.17007393841547139, 0.46141451579808723, -0.54023213402820003, 0.44945009931188579, -0.22425459411902307, 0.036904570688246256]], [[-0.71044380397754048, 0.95654038642677131, -1.0030750012089376, 0.83521798788621338, -0.6185257100452688, 0.42330050538794134, -0.26429189167847972, 0.13130646284419281, -0.04898603765446008, 0.010943484265176081], [-0.60788198353361977, 0.78184610020743817, -0.47694798517541293, 0.098754096996403057, 0.055425108992453308, -0.026780034198036113, 0.024398784919553863, -0.011431228484908802, -0.019527343490084233, -0.0094363900840891551], [-1.8779497736409358, 1.3332691950184925, 0.09717430280543847, -0.60696945571135363, 0.77817743796698902, -0.35958850468808573, -0.23798603965930731, 0.3736988635532616, -0.25397044768928989, 0.076242594856911761], [-0.021886791146956297, 1.2123622784693988, -0.47514698457826665, -0.36745148912774306, 0.1845377380358286, -0.12021518938211585, 0.014009592590122657, 0.0012976183159548653, -0.02710360557240778, -0.094247519551744971]], [[0.52372253173866212, -0.81933717068151446, 0.98718715863279127, -0.92603061663053654, 0.72909783982151388, -0.53073282808824507, 0.33560201485088503, -0.1602633459035385, 0.061435288848783756, -0.016110044218740828], [0.35834759212262107, -0.76660009512860372, 1.0175711027875829, -0.78584370730448228, 0.47147870356868676, -0.26352488801673912, -0.010201216852960861, 0.11646899517296114, -0.055087181435871171, 0.049472163687537929], [-0.29161801680653193, 0.00049903145371700303, 0.66528099996056922, -0.74413655495834041, -0.31146690319876447, 0.47041083355238272, 0.30611736858981942, -0.36450803067959531, 0.28632943030857677, 0.045706070449930004], [0, 0, 1, 0, 0, 0, 0, 0, 0, 0]], [[0.88856377979705925, -0.087780224341934082, -0.28182153760886752, 0.63461926014035597, -0.83419489104931244, 0.75354792932945214, -0.47102288071221365, 0.22104389019960119, -0.068184362332732132, 0.018370914787181006], [-0.4595387198265759, 0.17215100905198819, -0.90843125041430028, 0.66918608822698988, 0.24765817295648621, -0.88167832965551707, -0.31178211966068753, 0.62305516813315898, -0.081616778787593589, 0.19816526405597237], [0.16246995354510857, 0.021224846156672347, -0.19384380215176839, 0.8238783675294179, 0.022344502724157358, 0.028090927843530348, -0.09004494580437987, -0.053676802586633564, -0.14804538207066342, -0.0037486871814736509], [0, 0, 0, 1, 0, 0, 0, 0, 0, 0]], [[0.26738954007464266, 0.037840073043280992, -0.25309299263079998, -0.068654687663686875, 0.68420122791786919, -0.39595021311970702, 0.32504652282664553, -0.27168908799322883, 0.20205386469161601, -0.040987434208749264], [-0.16525719516886936, 0.18303664839666742, -0.082130873508427293, -0.11753580892556223, 0.8947645390391693, -0.45059674029109154, -0.019460228469716439, -0.02293328198675797, 0.28752143457422691, -0.064136764550740744], [0, 0, 0, 0, 1, 0, 0, 0, 0, 0], [0, 0, 0, 0, 1, 0, 0, 0, 0, 0]], [[-0.17429631442343729, -0.33858452917241105, 0.46994714681054689, 0.21149334721936938, -0.4659244470555341, 0.58301494633996986, -0.30253974119393628, 0.0041370863364316307, 0.052274173767579167, -0.00798556774522142], [0.016097305908108667, -0.075159146863993553, 0.018614037384735098, 0.018028332141283621, -0.12143487139657366, 0.84943050289717126, -0.27370613831166385, -0.084616931839264484, 0.018346111576693424, 0.0043935025962875546], [0, 0, 0, 0, 0, 1, 0, 0, 0, 0], [0, 0, 0, 0, 0, 1, 0, 0, 0, 0]]], prehc: 1, lambdahc: 1, rcut: 6.5, dcut: 0.01, rcut_in: 1.394165723863459, dcut_in: 0.10000000000000001, inner_cutoff_type: zbl}
  [1, 2]: {nradmax: 6, lmax: 2, nradbasemax: 8, radbasename: SBessel, radparameters: [5.25], radcoefficients: [[[1.0440108813584248, -0.85260416609292622, 0.54510907497204097, -0.22123641348016349, 0.090235222819542465, -0.032751600253925095, 0.012315086836006177, -0.0021992924106603519], [1.0130207037584475, -1.1278137821497018, 0.96897036778555823, -0.63554879765182382, 0.33988100997507964, -0.11686992636504451, 0.030768322481453041, 0.0033909033456205372], [1.2536455585934927, -1.2732145695998811, 0.8969010365430099, -0.40610899357775287, 0.089291949133254292, 0.059826655968054691, -0.052170059110322013, 0.025620368462031893]], [[0.16433305701600862, -0.22204348269585636, 0.43261248243996414, -0.35714164792422959, 0.22801036871620459, -0.065634682080619247, 0.0087501756290756204, 0.012704514404914651], [-0.39436527456474124, 0.58729895701483237, -0.548770216438209, 0.58024531076686647, -0.52137858233905765, 0.44526998137401358, -0.25375603379820644, 0.12044366448483897], [-1.2230144268434893, 0.63266436287336802, 0.0078721568486215966, -0.25675077295670606, 0.20441279660336786, -0.1096861148700838, 0.016827336303919551, 0.035749119295961307]], [[1.3659473061183358, -1.4537342663710453, 1.0680022732044909, -0.7501285181811953, 0.52635911980514627, -0.36889011400899391, 0.18009395725283311, -0.068129269842793605], [0.37340823447985788, -0.71405716172500611, 0.88167930477837031, -0.62902486609435182, 0.27427208201450687, 0.017632524667010954, -0.085698690750911702, 0.061268146036794861], [0, 0, 1, 0, 0, 0, 0, 0]], [[0.51731873359004321, 0.42346365830484389, -0.95468346211698085, 0.97387747813078096, -0.64230155472172579, 0.31439193281400246, -0.1089467901528703, 0.02707990094705541], [1.2242463537095136, 0.047530185800988882, -0.99993410039354402, 1.1187267648107946, -0.77871277229533864, 0.22151637728277754, -0.0035150995923826211, -0.091707176355269385], [0, 0, 0, 1, 0, 0, 0, 0]], [[0.98702918856716559, 0.013249605217710686, 0.039076183709414791, 0.22939486379722857, -0.34004208292021271, 0.4152554025237038, -0.23138820497110868, 0.12234564123262388], [0, 0, 0, 0, 1, 0, 0, 0], [0, 0, 0, 0, 1, 0, 0, 0]], [[-1.0962193451642661, -0.10090021875299945, 1.0910295859890289, -0.17984401674744052, -0.86234264264935001, 1.4453338401574625, -0.9201775160935588, 0.39163358096628192], [0, 0, 0, 0, 0, 1, 0, 0], [0, 0, 0, 0, 0, 1, 0, 0]]], prehc: 1, lambdahc: 1, rcut: 6.5, dcut: 0.01, rcut_in: 1.1357173570563879, dcut_in: 0.10000000000000001, inner_cutoff_type: zbl}
  [1, 3]: {nradmax: 6, lmax: 2, nradbasemax: 8, radbasename: SBessel, radparameters: [5.25], radcoefficients: [[[1.0904918139179083, -1.0098083081340992, 1.3345556449403941, -1.0899362354898465, 0.689383133465861, -0.33081181128672937, 0.075434540988707943, -0.022061180166376287], [1.445498049905912, -0.67324530879169187, 0.95071016704154265, -0.68606284052337185, 0.49863655733508994, -0.24870603904342817, 0.06189820965556516, -0.013055256943868743], [1.4702021224340545, -0.85157853895095115, 0.69530927552362709, -0.32733607580951568, 0.31065649285602065, -0.1554970991635384, 0.065260295796577605, -0.012242856912719275]], [[-1.3392572583423559, 1.1555799963590418, -0.56407698176543186, 0.08022608615598234, 0.094132324187776312, -0.087878903594444863, 0.042477657673421688, -0.012448581352648508], [-1.0770151320129635, 1.4536641333387599, -0.619849731037727, 0.35706471534789314, -0.2296321124282372, 0.10792260395086263, -0.075234976266507811, 0.0054443099248686639], [0.039861494265918569, 0.34719129549300076, 0.41792233269147139, 0.12478190087960135, -0.30466295145124789, 0.2576561815257678, -0.22625895366561929, 0.10163133072770801]], [[0.7640773806074691, 0.17332032580790743, 1.2601355323888734, -0.44876195182153322, -0.29083143819524915, 0.21117298915005397, -0.17707037915284721, 0.072124176043164762], [-0.40373135888106615, -0.72771376538023003, 0.99877897547994787, -0.86603915470390613, 0.44441599884270483, -0.29514045947781464, 0.14129902751104939, -0.04704954664305], [0, 0, 1, 0, 0, 0, 0, 0]], [[0.78107735611010976, 0.46292378233866288, -0.27934860085975821, 0.66096413467299131, -0.28280800853139643, 0.095299383138749402, -0.26078173841850433, 0.060447036666693522], [0.17247118593549787, 0.010129809784937775, -0.66108248340855202, 0.74422540407635884, -0.18646329302409798, -0.54093358307221717, 0.2286347737608744, -0.02712808387311464], [0, 0, 0, 1, 0, 0, 0, 0]], [[-0.072125188666547324, 0.096659759875117948, -0.1481833444647887, -0.30477816300677141, 0.73813841412790859, -0.54232145602334603, 0.063940386754572878, 0.022682081102370345], [0, 0, 0, 0, 1, 0, 0, 0], [0, 0, 0, 0, 1, 0, 0, 0]], [[0.23827075285309798, 0.064949285985055186, -0.35940252695014441, -0.5688248464424932, -0.69503779688244238, 0.50598594224028748, -0.21252958849896744, 0.32587429157675629], [0, 0, 0, 0, 0, 1, 0, 0], [0, 0, 0, 0, 0, 1, 0, 0]]], prehc: 1, lambdahc: 1, rcut: 6.5, dcut: 0.01, rcut_in: 1.3993780737601311, dcut_in: 0.10000000000000001, inner_cutoff_type: zbl}
  [2, 0]: {nradmax: 6, lmax: 2, nradbasemax: 8, radbasename: SBessel, radparameters: [5.25], radcoefficients: [[[0.60017783295813587, 0.04585467741841967, -0.30403210666138936, 0.32655003027511753, -0.24295064737537211, 0.14322312285834454, -0.064102720883064346, 0.016491663583582977], [1.2411153523145515, -0.69592019644143865, 0.45825944975092547, -0.35290990443364778, 0.25798399474679168, -0.19359634955135499, 0.1458439155772201, -0.069309429388137056], [-0.42222745153151814, 1.1883190528578047, -1.3212495416638521, 0.97658934125130514, -0.51431509315186852, 0.21330985985422846, -0.061517823627951447, 0.021384409405708141]], [[-0.78347584501661749, 1.459199098841965, -1.0573637245530976, 0.57449810991206673, -0.26029294958264532, 0.083748617962927471, -0.002649543402454743, -0.011174298027777809], [-0.27113027805995094, 0.50910802094519181, 0.042273502306316671, -0.51392076136721809, 0.62022310264459068, -0.43061785273385528, 0.22561213458975435, -0.090387925025018287], [-0.57881787881505331, 1.0238788915583972, -0.51169996406587681, -0.011192297634541696, 0.2622327448469971, -0.25455666933630156, 0.164108297634213, -0.047043071854992395]], [[2.8322823357442797, -1.2346356405628738, 1.1410336965818959, -1.1549380053705145, 0.91336246759923967, -0.56161438082036352, 0.26582351002743915, -0.085842054902844189], [0.21013473424218646, -0.85328970642538871, 1.1717511681179325, -1.2961631633377071, 0.90703310680131644, -0.48579149461537258, 0.21047811539509789, -0.075231490016201108], [0, 0, 1, 0, 0, 0, 0, 0]], [[1.5518344096275885, 0.62619331688658642, -1.1833613404404728, 0.92083251125351695, -0.52364999393132372, 0.25598103700465424, -0.070135540768531873, 0.00062804118894158685], [0.056590422121731994, 0.77892972596625554, -1.1430131006181341, 0.85237084218942494, -0.7823694019250923, 0.53567005188951289, -0.22356666685370166, 0.004910581762597007], [0, 0, 0, 1, 0, 0, 0, 0]], [[-0.22895519452581803, 0.5953095973169571, -0.70655765299299622, 0.11355789515398669, 0.29226322067569971, -0.41686161788868986, 0.22476175194799045, -0.12050463628230151], [0, 0, 0, 0, 1, 0, 0, 0], [0, 0, 0, 0, 1, 0, 0, 0]], [[-0.24635342855425121, 0.19494351253226469, 0.91769107458128552, -0.18817541475436095, -0.22691888301484878, 0.95325069227172299, -0.27436873135926265, 0.19123587997690086], [0, 0, 0, 0, 0, 1, 0, 0], [0, 0, 0, 0, 0, 1, 0, 0]]], prehc: 1, lambdahc: 1, rcut: 6.5, dcut: 0.01, rcut_in: 1.3397600226807522, dcut_in: 0.10000000000000001, inner_cutoff_type: zbl}
  [2, 1]: {nradmax: 6, lmax: 2, nradbasemax: 8, radbasename: SBessel, radparameters: [5.25], radcoefficients: [[[1.0440108813584248, -0.85260416609292622, 0.54510907497204097, -0.22123641348016349, 0.090235222819542465, -0.032751600253925095, 0.012315086836006177, -0.0021992924106603519], [1.0130207037584475, -1.1278137821497018, 0.96897036778555823, -0.63554879765182382, 0.33988100997507964, -0.11686992636504451, 0.030768322481453041, 0.0033909033456205372], [1.2536455585934927, -1.2732145695998811, 0.8969010365430099, -0.40610899357775287, 0.089291949133254292, 0.059826655968054691, -0.052170059110322013, 0.025620368462031893]], [[0.16433305701600862, -0.22204348269585636, 0.43261248243996414, -0.35714164792422959, 0.22801036871620459, -0.065634682080619247, 0.0087501756290756204, 0.012704514404914651], [-0.39436527456474124, 0.58729895701483237, -0.548770216438209, 0.58024531076686647, -0.52137858233905765, 0.44526998137401358, -0.25375603379820644, 0.12044366448483897], [-1.2230144268434893, 0.63266436287336802, 0.0078721568486215966, -0.25675077295670606, 0.20441279660336786, -0.1096861148700838, 0.016827336303919551, 0.035749119295961307]], [[1.3659473061183358, -1.4537342663710453, 1.0680022732044909, -0.7501285181811953, 0.52635911980514627, -0.36889011400899391, 0.18009395725283311, -0.068129269842793605], [0.37340823447985788, -0.71405716172500611, 0.88167930477837031, -0.62902486609435182, 0.27427208201450687, 0.017632524667010954, -0.085698690750911702, 0.061268146036794861], [0, 0, 1, 0, 0, 0, 0, 0]], [[0.51731873359004321, 0.42346365830484389, -0.95468346211698085, 0.97387747813078096, -0.64230155472172579, 0.31439193281400246, -0.1089467901528703, 0.02707990094705541], [1.2242463537095136, 0.047530185800988882, -0.99993410039354402, 1.1187267648107946, -0.77871277229533864, 0.22151637728277754, -0.0035150995923826211, -0.091707176355269385], [0, 0, 0, 1, 0, 0, 0, 0]], [[0.98702918856716559, 0.013249605217710686, 0.039076183709414791, 0.22939486379722857, -0.34004208292021271, 0.4152554025237038, -0.23138820497110868, 0.12234564123262388], [0, 0, 0, 0, 1, 0, 0, 0], [0, 0, 0, 0, 1, 0, 0, 0]], [[-1.0962193451642661, -0.10090021875299945, 1.0910295859890289, -0.17984401674744052, -0.86234264264935001, 1.4453338401574625, -0.9201775160935588, 0.39163358096628192], [0, 0, 0, 0, 0, 1, 0, 0], [0, 0, 0, 0, 0, 1, 0, 0]]], prehc: 1, lambdahc: 1, rcut: 6.5, dcut: 0.01, rcut_in: 1.1357173570563879, dcut_in: 0.10000000000000001, inner_cutoff_type: zbl}
  [2, 2]: {nradmax: 6, lmax: 3, nradbasemax: 10, radbasename: SBessel, radparameters: [5.25], radcoefficients: [[[0.69683261432832322, -0.57487192457697145, 0.38233656554276552, -0.10544273781685258, -0.066563708371476529, 0.14179772502672541, -0.13675341486639661, 0.090197381373741378, -0.043399966570923744, 0.014131786833506955], [-0.072016553315469842, -0.017212909112710222, 0.11084763657805749, -0.16321756582675384, 0.14938525278735459, -0.10213334291420949, 0.046520426520002385, -0.013821754602508503, 0.00081305093985117405, 0.0012160211195406147], [0.32978032736847673, -0.18283609460841857, 0.058421447831744897, -0.029556258330877317, 0.03122211043640457, -0.067255901190604872, 0.053726763817019067, -0.026573645943962186, 0.011140362457830582, -0.0083495895714280274], [-1.2279669777685678, 1.7694639856087935, -1.7823097298876307, 1.6680492245135452, -1.2335600622857819, 0.89627567061178481, -0.57829982686071313, 0.27278836769524628, -0.15918286056693828, 0.072256196237151668]], [[0.41084667549163006, -0.073638040620506509, 0.2015468257540923, -0.064864805213058929, -0.093369651833786566, 0.21707231282722872, -0.2539380942780351, 0.20567673031731679, -0.12155393603383563, 0.040859268171746913], [0.37428490442673157, -0.23058370269367687, 0.3105526349788631, -0.40209253682312113, 0.47265933113888398, -0.44022931690333528, 0.30301240658120643, -0.16730821320308614, 0.074777023618359126, -0.018922751366404634], [0.069821757743441487, -0.086907807699250383, 0.062246544485377836, -0.026583587632654272, -0.010643372581289522, 0.021558173444259136, -0.017658503134894366, 0.012793582784659018, -0.0053689401003696059, 0.0012652552479224478], [-1.8772077123613953, 1.5124950968364066, -1.2183822352673237, 0.28045752691636044, -0.19055720310696286, -0.21335354694909239, 0.51090767233038659, -0.095210824503227737, 0.31012229208599057, -0.16421103722010424]], [[0.54601503407084429, -1.0082447584550238, 0.98167967522781996, -0.57239778038567357, 0.13856828871723809, 0.13011361289217577, -0.20139000931742465, 0.15396759626304132, -0.076792611200734787, 0.024493639775417672], [0.23140581344262651, -0.11774061948188244, 0.11599741049020545, 0.14757378366755028, -0.25875511065806867, 0.27785379785272496, -0.17406293916552654, 0.075383644361645144, -0.017552005774035977, -0.0013472565119862911], [0.20435466312123307, 2.4631215774540638, 0.27970178904749082, -0.37078552149266664, 1.6795130566836798, -1.2941522980808153, 0.47649479038043785, 0.24466958773967276, -0.0790016774737127, 0.20641898288783278], [0, 0, 1, 0, 0, 0, 0, 0, 0, 0]], [[0.16052214086130737, 0.0214608777938631, -0.46225068752830362, 0.66345916931121285, -0.59329838502037013, 0.40759037572398682, -0.20082856623484432, 0.056312600816748194, 0.0063803461646086699, -0.0050865973576108602], [-0.51254913289124582, 0.88337742626409055, -0.73586693992716901, 0.9271507976047475, -0.90648644073490292, 0.75292693924475473, -0.45135362568328813, 0.20794610379597728, -0.065150039506266091, 0.00349784547303581], [-0.13288277199199647, -0.53686069154478044, 0.42893346932084186, 1.5865763040928029, -0.60738487113458861, 0.23644752507139602, -0.38455716254653843, -1.4191618261890466, 1.1217870795161584, 0.35108076237037572], [0, 0, 0, 1, 0, 0, 0, 0, 0, 0]], [[0.3837057945734148, -0.12011117506350177, 0.7322147658774607, -1.0961706542270822, 1.233107760414405, -0.97886262442614613, 0.64473745678907324, -0.37069328167799015, 0.15771427544783601, -0.035713912819890239], [0.005013186160583499, 2.3317894708453415, 1.1098435999761511, -1.9532348842897587, 0.7026176607436464, -0.13077020577915827, -0.51146901282145429, 0.17436150458768901, -0.16687865298226176, -0.078311803119394702], [0, 0, 0, 0, 1, 0, 0, 0, 0, 0], [0, 0, 0, 0, 1, 0, 0, 0, 0, 0]], [[0.21950860501691219, 0.1415923018387617, -0.55763481302307705, 1.0174696519909014, -1.0639282835042272, 1.0326584778983143, -0.68682327741949345, 0.30288970640831331, -0.071482565321386346, 0.038868138481993025], [-0.29972407011411173, 1.0618771154740809, 0.18398235980247457, -0.042802896097445801, -0.84152604401358244, 0.13221929504274735, -0.65083721212916823, 0.2310473595863182, -0.45932779653282307, -0.42132341734367218], [0, 0, 0, 0, 0, 1, 0, 0, 0, 0], [0, 0, 0, 0, 0, 1, 0, 0, 0, 0]]], prehc: 1, lambdahc: 1, rcut: 6.5, dcut: 0.01, rcut_in: 0.93435005032772234, dcut_in: 0.10000000000000001, inner_cutoff_type: zbl}
  [2, 3]: {nradmax: 6, lmax: 2, nradbasemax: 8, radbasename: SBessel, radparameters: [5.25], radcoefficients: [[[1.8828181957416286, -1.3279477455058217, 1.0809685471076533, -0.80374484741578611, 0.58140622966643185, -0.32408479091913572, 0.15197002050249003, -0.05084705216325084], [1.51330068410671, -0.86673221901343456, 0.5425384206131969, -0.33835391063569198, 0.20532321805709511, -0.063841041072101021, 0.026474403181106332, -0.00295617500271475], [0.84232158212805286, 0.21746803245700991, -1.0254107070899863, 1.0662191378426593, -0.83414474216795287, 0.50584044508378279, -0.23955624549193458, 0.074887381689885721]], [[-0.87878292996625562, 1.6688073593517261, -0.99579945777671697, 0.474860973242208, -0.038295028977645369, -0.024376789462089297, 0.076672953421442522, -0.054680786687018659], [0.025657811335859149, 0.025446989965049675, 0.52244653964251764, -0.50407539993765627, 0.40127520915195164, -0.22011014730378667, 0.12549283439705392, -0.021017263015625152], [-0.53210932454215587, 1.0044841263164677, -0.65670082895504378, 0.29968393728412601, -0.085090800485389903, 0.012082354694246886, 0.039531773827399093, -0.017136111883700001]], [[0.10703002657651715, -0.6227855641366804, 1.2439167306656678, -0.89208551238430911, 0.7224800080361593, -0.38119886586005991, 0.22389936384054915, -0.060363575826447198], [-0.39905882098951306, -0.25713841234340717, 0.80839208826951026, -0.3574765983409674, -0.019358077365427041, 0.21439145285308858, -0.046432644544770564, 0.056466435353470193], [0, 0, 1, 0, 0, 0, 0, 0]], [[1.5143764028341506, -0.58696379942626908, -0.046298713989728291, 0.53943107991709327, -0.51544265011870638, 0.37865391896832601, -0.14643868563637122, 0.053324751601109194], [0.10657825195925651, -0.086567983104677268, -0.52168272647854674, 1.3951555875812331, -1.465117328682245, 1.0956396190478424, -0.46086761964539336, 0.17677995209260647], [0, 0, 0, 1, 0, 0, 0, 0]], [[1.0792574278894067, 0.86459311525252791, -0.20428839029548748, -0.45075632613156735, 0.98772351114960655, -0.79579039312017674, 0.47312247616550857, -0.21152964030937635], [0, 0, 0, 0, 1, 0, 0, 0], [0, 0, 0, 0, 1, 0, 0, 0]], [[-0.99707616629767692, 0.30393657158329312, 0.63336531245187888, 0.12934149315244844, -0.021278516957526125, 0.23439790968693078, -0.03446719970912928, 0.013339108162854952], [0, 0, 0, 0, 0, 1, 0, 0], [0, 0, 0, 0, 0, 1, 0, 0]]], prehc: 1, lambdahc: 1, rcut: 6.5, dcut: 0.01, rcut_in: 1.2206189702345658, dcut_in: 0.10000000000000001, inner_cutoff_type: zbl}
  [3, 0]: {nradmax: 6, lmax: 2, nradbasemax: 8, radbasename: SBessel, radparameters: [5.25], radcoefficients: [[[2.5434132310822815, -2.3068232448505968, 2.0728795152959294, -1.4331849266651664, 0.88142389224764084, -0.37163547330486696, 0.11080746619540385, 0.0067424445334491609], [2.0275068956429991, -1.2442327216837412, 1.2840252117141981, -0.66362329603166526, 0.30805851573648324, 0.067949498323974053, -0.080722205460550756, 0.052520757553785852], [1.5480947207915565, -0.51848443041453873, 0.54444584351084324, 0.24233807626683376, -0.38404728872494831, 0.417641228520446, -0.23671852476146202, 0.12072472629323695]], [[-1.8374978906809267, 1.7240376102448969, -0.53479308313155094, 0.10791492397061053, 0.18091577758035521, -0.089461759611314376, 0.1005349428762191, -0.0035632256271558565], [-0.40526457158638779, 1.2054575607046103, -0.57010607234785216, 0.23769536739173897, -0.033083523320610153, -0.033741015648164827, 0.067296281459954005, 0.045825593036102973], [0.025431427973640432, 1.1664443984928818, -0.18428564472385373, 0.007594554496399712, 0.1883231751116195, 0.01074586920578908, 0.058419891341300385, 0.015070656358064767]], [[-0.13371358128855873, -0.79996073593456862, 0.75326150852846518, -0.23951355667268276, -0.11544838021443121, 0.15882165039989898, -0.24336511685759904, 0.16057557564832156], [0.25756591222653752, 0.15768297477364465, 1.036778175098457, -0.26836145247133691, -0.15969773023837905, 0.56859891592174705, -0.19350608128872707, 0.15289220014335134], [0, 0, 1, 0, 0, 0, 0, 0]], [[0.33645072462342451, -0.13043696938524929, -0.28931157969819449, 0.90394586376306951, 0.0062804718127661679, 0.21734438255494842, 0.052569135537397678, -0.059565950589310093], [0.23829570518319054, -0.058803589523604226, 0.13013406123327506, 1.0233583154305674, -0.51897083503020069, -0.40271928504081661, 0.12344179169814003, 0.29696882492436361], [0, 0, 0, 1, 0, 0, 0, 0]], [[0.090373630200850791, 0.17567467670725528, 0.020645806963400411, 0.0032047406587556661, 0.68790371744647183, -0.61110013275481745, -0.089790688267905483, 0.072044050045388899], [0, 0, 0, 0, 1, 0, 0, 0], [0, 0, 0, 0, 1, 0, 0, 0]], [[0.26282897045012699, -0.11217881430057022, -0.20728332437570651, 0.04243265269318916, 0.020264756569419888, 0.68130529901450432, -0.42802926298516097, -0.39716672067075104], [0, 0, 0, 0, 0, 1, 0, 0], [0, 0, 0, 0, 0, 1, 0, 0]]], prehc: 1, lambdahc: 1, rcut: 6.5, dcut: 0.01, rcut_in: 1.6953247867847252, dcut_in: 0.10000000000000001, inner_cutoff_type: zbl}
  [3, 1]: {nradmax: 6, lmax: 2, nradbasemax: 8, radbasename: SBessel, radparameters: [5.25], radcoefficients: [[[1.0904918139179083, -1.0098083081340992, 1.3345556449403941, -1.0899362354898465, 0.689383133465861, -0.33081181128672937, 0.075434540988707943, -0.022061180166376287], [1.445498049905912, -0.67324530879169187, 0.95071016704154265, -0.68606284052337185, 0.49863655733508994, -0.24870603904342817, 0.06189820965556516, -0.013055256943868743], [1.4702021224340545, -0.85157853895095115, 0.69530927552362709, -0.32733607580951568, 0.31065649285602065, -0.1554970991635384, 0.065260295796577605, -0.012242856912719275]], [[-1.3392572583423559, 1.1555799963590418, -0.56407698176543186, 0.08022608615598234, 0.094132324187776312, -0.087878903594444863, 0.042477657673421688, -0.012448581352648508], [-1.0770151320129635, 1.4536641333387599, -0.619849731037727, 0.35706471534789314, -0.2296321124282372, 0.10792260395086263, -0.075234976266507811, 0.0054443099248686639], [0.039861494265918569, 0.34719129549300076, 0.41792233269147139, 0.12478190087960135, -0.30466295145124789, 0.2576561815257678, -0.22625895366561929, 0.10163133072770801]], [[0.7640773806074691, 0.17332032580790743, 1.2601355323888734, -0.44876195182153322, -0.29083143819524915, 0.21117298915005397, -0.17707037915284721, 0.072124176043164762], [-0.40373135888106615, -0.72771376538023003, 0.99877897547994787, -0.86603915470390613, 0.44441599884270483, -0.29514045947781464, 0.14129902751104939, -0.04704954664305], [0, 0, 1, 0, 0, 0, 0, 0]], [[0.78107735611010976, 0.46292378233866288, -0.27934860085975821, 0.66096413467299131, -0.28280800853139643, 0.095299383138749402, -0.26078173841850433, 0.060447036666693522], [0.17247118593549787, 0.010129809784937775, -0.66108248340855202, 0.74422540407635884, -0.18646329302409798, -0.54093358307221717, 0.2286347737608744, -0.02712808387311464], [0, 0, 0, 1, 0, 0, 0, 0]], [[-0.072125188666547324, 0.096659759875117948, -0.1481833444647887, -0.30477816300677141, 0.73813841412790859, -0.54232145602334603, 0.063940386754572878, 0.022682081102370345], [0, 0, 0, 0, 1, 0, 0, 0], [0, 0, 0, 0, 1, 0, 0, 0]], [[0.23827075285309798, 0.064949285985055186, -0.35940252695014441, -0.5688248464424932, -0.69503779688244238, 0.50598594224028748, -0.21252958849896744, 0.32587429157675629], [0, 0, 0, 0, 0, 1, 0, 0], [0, 0, 0, 0, 0, 1, 0, 0]]], prehc: 1, lambdahc: 1, rcut: 6.5, dcut: 0.01, rcut_in: 1.3993780737601311, dcut_in: 0.10000000000000001, inner_cutoff_type: zbl}
  [3, 2]: {nradmax: 6, lmax: 2, nradbasemax: 8, radbasename: SBessel, radparameters: [5.25], radcoefficients: [[[1.8828181957416286, -1.3279477455058217, 1.0809685471076533, -0.80374484741578611, 0.58140622966643185, -0.32408479091913572, 0.15197002050249003, -0.05084705216325084], [1.51330068410671, -0.86673221901343456, 0.5425384206131969, -0.33835391063569198, 0.20532321805709511, -0.063841041072101021, 0.026474403181106332, -0.00295617500271475], [0.84232158212805286, 0.21746803245700991, -1.0254107070899863, 1.0662191378426593, -0.83414474216795287, 0.50584044508378279, -0.23955624549193458, 0.074887381689885721]], [[-0.87878292996625562, 1.6688073593517261, -0.99579945777671697, 0.474860973242208, -0.038295028977645369, -0.024376789462089297, 0.076672953421442522, -0.054680786687018659], [0.025657811335859149, 0.025446989965049675, 0.52244653964251764, -0.50407539993765627, 0.40127520915195164, -0.22011014730378667, 0.12549283439705392, -0.021017263015625152], [-0.53210932454215587, 1.0044841263164677, -0.65670082895504378, 0.29968393728412601, -0.085090800485389903, 0.012082354694246886, 0.039531773827399093, -0.017136111883700001]], [[0.10703002657651715, -0.6227855641366804, 1.2439167306656678, -0.89208551238430911, 0.7224800080361593, -0.38119886586005991, 0.22389936384054915, -0.060363575826447198], [-0.39905882098951306, -0.25713841234340717, 0.80839208826951026, -0.3574765983409674, -0.019358077365427041, 0.21439145285308858, -0.046432644544770564, 0.056466435353470193], [0, 0, 1, 0, 0, 0, 0, 0]], [[1.5143764028341506, -0.58696379942626908, -0.046298713989728291, 0.53943107991709327, -0.51544265011870638, 0.37865391896832601, -0.14643868563637122, 0.053324751601109194], [0.10657825195925651, -0.086567983104677268, -0.52168272647854674, 1.3951555875812331, -1.465117328682245, 1.0956396190478424, -0.46086761964539336, 0.17677995209260647], [0, 0, 0, 1, 0, 0, 0, 0]], [[1.0792574278894067, 0.86459311525252791, -0.20428839029548748, -0.45075632613156735, 0.98772351114960655, -0.79579039312017674, 0.47312247616550857, -0.21152964030937635], [0, 0, 0, 0, 1, 0, 0, 0], [0, 0, 0, 0, 1, 0, 0, 0]], [[-0.99707616629767692, 0.30393657158329312, 0.63336531245187888, 0.12934149315244844, -0.021278516957526125, 0.23439790968693078, -0.03446719970912928, 0.013339108162854952], [0, 0, 0, 0, 0, 1, 0, 0], [0, 0, 0, 0, 0, 1, 0, 0]]], prehc: 1, lambdahc: 1, rcut: 6.5, dcut: 0.01, rcut_in: 1.2206189702345658, dcut_in: 0.10000000000000001, inner_cutoff_type: zbl}
  [3, 3]: {nradmax: 6, lmax: 3, nradbasemax: 10, radbasename: SBessel, radparameters: [5.25], radcoefficients: [[[1.5924961594784353, -1.0476275298027606, 0.79862595640278644, -0.30304632669865322, 0.037743478766078836, 0.24100825922836369, -0.39352299072493352, 0.34640631215662365, -0.21291907353217326, 0.077882130229005864], [1.4413237294015986, -1.0865504072178229, 0.19908247600313653, 0.19845047279524855, -0.31996592489461267, 0.27759255355064472, -0.33337782334765875, 0.35224253801462208, -0.25411241010555163, 0.09571025941608001], [1.476270615350959, -0.86979371780193016, -0.076122970425921477, 0.45654755319045276, -0.44006142703945456, 0.14937904333162597, -0.098854593947460878, -0.010565983536061472, 0.0056766634106976297, -0.0095967715904236982], [1.0196889573735322, -0.85578843224466716, -0.075671334048797986, 0.22458674083058328, -0.53612675775481966, 0.25694787618946835, 0.081377199886609256, -0.1657624893793658, 0.18384402041768011, -0.10756497957391666]], [[-0.85821623616650189, 1.0002309103984732, 0.0015086489701203085, -0.21330252121713714, -0.076134797791084702, 0.39370504118476918, -0.48607127715619097, 0.39226736157344916, -0.19208756937326166, 0.056079281734622365], [-0.41842743717334085, 1.6286300836488208, -0.28356236019683001, -0.10886794487972072, 0.68770781430096295, -0.55524597741326387, 0.49882038768918341, -0.1296516185732938, 0.068540599163979588, -0.034424034842010932], [0.27237720998490755, 1.0799934288676916, -0.5012412953558012, -0.20966519894902916, 0.44774716687178195, -0.0065826567901734918, -0.19691777379479372, 0.34141736479246998, -0.15389571097742302, 0.069978433234220136], [-0.023339944643310115, 1.0803405842658134, -0.23072338771125747, -0.22158964946816345, 0.091607211704807331, -0.045340412655024517, 0.064594699936625671, 0.081297981054829452, -0.033525845795729349, 0.083112614832000095]], [[-0.70046951528573442, -0.70792285063675053, 1.132201927831971, -0.85751873962077385, 0.29169198153432879, 0.30836494763035605, -0.54133187401889926, 0.5006135416219164, -0.2746808624574647, 0.091410898039601049], [-0.024583261960271056, -0.043521128048331019, 0.76049670658379542, -0.12967478527708173, 0.28163532683124476, -0.077031334561604367, -0.11101035878217035, 0.67068896244592624, -0.49277433943879889, 0.17126677209940191], [0.15935121334587152, 0.006099123919761089, 0.82498758598789701, -0.1895109818856856, 0.11941672190992172, 0.34589115652924324, 0.14617572560713746, 0.18776718915200816, 0.095132464039720338, 0.2247954910018391], [0, 0, 1, 0, 0, 0, 0, 0, 0, 0]], [[-0.29546463675596274, -0.31526090108113808, -0.24859333726894167, 0.76321764010879467, -0.33256449130014587, 0.062426579278690449, 0.027142654754103414, -0.054850703379817553, -0.030535049076870983, 0.046813431461219204], [0.061378336352405735, -0.17411690949141839, -0.11174830467129031, 1.0368846245965628, -0.20153785873865229, 0.011041305935008445, 0.2917615202101505, 0.048441201784278978, 0.062637634125663186, 0.029000296664408464], [-0.024114931663731336, -0.057924785454488321, -0.044665682199723653, 0.79406497188028669, -0.3836202514250589, -0.15242867281204625, 0.14595140211293248, 0.023333732958838959, -0.15544019376141596, -0.033640742109619218], [0, 0, 0, 1, 0, 0, 0, 0, 0, 0]], [[-0.16474851746303465, 0.099758990801008723, 0.041122331531085542, -0.25315254707663515, 0.78147316397214395, -0.092692162304748998, -0.044302708948078036, -0.13883811571774876, 0.094586888134718938, 0.03939973864756622], [-0.039451572618163941, 0.038308407864934557, 0.0012706518011457604, -0.079904906665349856, 0.76951873227668088, -0.10080628002125308, 0.34712088054034562, 0.23334643246298276, 0.19006433643933923, 0.0062023019492331551], [0, 0, 0, 0, 1, 0, 0, 0, 0, 0], [0, 0, 0, 0, 1, 0, 0, 0, 0, 0]], [[0.43469331725010579, 0.35846275675062267, 0.24390457558018569, 0.063767847076018888, -0.079243846936916995, 0.74632687108758577, -0.41082760539541963, 0.076239088235237645, 0.23928996626327489, -0.12130909289915683], [-0.025726555398876055, -0.034515820384655942, 0.021242013850116877, 0.056300405549202653, 0.016036219891623463, 0.933671050901411, -0.10532462557584722, -0.13126429547374432, -0.14764513531240403, 0.10131108824867185], [0, 0, 0, 0, 0, 1, 0, 0, 0, 0], [0, 0, 0, 0, 0, 1, 0, 0, 0, 0]]], prehc: 1, lambdahc: 1, rcut: 6.5, dcut: 0.01, rcut_in: 1.6413135181491334, dcut_in: 0.10000000000000001, inner_cutoff_type: zbl}
functions:
  0:
    - {mu0: 0, rank: 1, ndensity: 2, num_ms_combs: 1, mus: [0], ns: [1], ls: [0], ms_combs: [0], ctildes: [1.0824618589597201, 0.45543157490272451]}
    - {mu0: 0, rank: 1, ndensity: 2, num_ms_combs: 1, mus: [0], ns: [2], ls: [0], ms_combs: [0], ctildes: [-1.856520691541881, -0.24944055642871599]}
    - {mu0: 0, rank: 1, ndensity: 2, num_ms_combs: 1, mus: [0], ns: [3], ls: [0], ms_combs: [0], ctildes: [-1.5408103612360913, -0.3472376635865585]}
    - {mu0: 0, rank: 1, ndensity: 2, num_ms_combs: 1, mus: [0], ns: [4], ls: [0], ms_combs: [0], ctildes: [0.47373783694796789, 0.27469798586865268]}
    - {mu0: 0, rank: 1, ndensity: 2, num_ms_combs: 1, mus: [0], ns: [5], ls: [0], ms_combs: [0], ctildes: [-0.89439874066140934, -0.067911019892356886]}
    - {mu0: 0, rank: 1, ndensity: 2, num_ms_combs: 1, mus: [0], ns: [6], ls: [0], ms_combs: [0], ctildes: [-0.043116372912550313, -0.14677797848142504]}
    - {mu0: 0, rank: 1, ndensity: 2, num_ms_combs: 1, mus: [0], ns: [7], ls: [0], ms_combs: [0], ctildes: [0.31633523364040328, 0.20156708157178554]}
    - {mu0: 0, rank: 1, ndensity: 2, num_ms_combs: 1, mus: [0], ns: [8], ls: [0], ms_combs: [0], ctildes: [-0.77441533659540773, 0.058430571086080199]}
    - {mu0: 0, rank: 1, ndensity: 2, num_ms_combs: 1, mus: [0], ns: [9], ls: [0], ms_combs: [0], ctildes: [0.38734811635793343, -0.13423880037077207]}
    - {mu0: 0, rank: 1, ndensity: 2, num_ms_combs: 1, mus: [0], ns: [10], ls: [0], ms_combs: [0], ctildes: [-0.21811932343825072, 0.073637620229737549]}
    - {mu0: 0, rank: 1, ndensity: 2, num_ms_combs: 1, mus: [1], ns: [1], ls: [0], ms_combs: [0], ctildes: [0.71532466470492984, -0.0033875128139264775]}
    - {mu0: 0, rank: 1, ndensity: 2, num_ms_combs: 1, mus: [1], ns: [2], ls: [0], ms_combs: [0], ctildes: [-3.1563896010926231, -0.48284076558088418]}
    - {mu0: 0, rank: 1, ndensity: 2, num_ms_combs: 1, mus: [1], ns: [3], ls: [0], ms_combs: [0], ctildes: [-2.3954710384093829, 0.0069767058615916389]}
    - {mu0: 0, rank: 1, ndensity: 2, num_ms_combs: 1, mus: [1], ns: [4], ls: [0], ms_combs: [0], ctildes: [0.76366363257464376, 0.22308470891868681]}
    - {mu0: 0, rank: 1, ndensity: 2, num_ms_combs: 1, mus: [1], ns: [5], ls: [0], ms_combs: [0], ctildes: [-0.72978674863180737, -0.61965198616097228]}
    - {mu0: 0, rank: 1, ndensity: 2, num_ms_combs: 1, mus: [1], ns: [6], ls: [0], ms_combs: [0], ctildes: [0.056678184113173449, 0.55309197410319921]}
    - {mu0: 0, rank: 1, ndensity: 2, num_ms_combs: 1, mus: [1], ns: [7], ls: [0], ms_combs: [0], ctildes: [-0.023653019504611003, -0.27975680134839603]}
    - {mu0: 0, rank: 1, ndensity: 2, num_ms_combs: 1, mus: [1], ns: [8], ls: [0], ms_combs: [0], ctildes: [-0.055715373679982735, 0.10904029085536383]}
    - {mu0: 0, rank: 1, ndensity: 2, num_ms_combs: 1, mus: [2], ns: [1], ls: [0], ms_combs: [0], ctildes: [-2.7801275361616615, -1.8329110769716102]}
    - {mu0: 0, rank: 1, ndensity: 2, num_ms_combs: 1, mus: [2], ns: [2], ls: [0], ms_combs: [0], ctildes: [-1.6983676531893932, -0.24217045094809614]}
    - {mu0: 0, rank: 1, ndensity: 2, num_ms_combs: 1, mus: [2], ns: [3], ls: [0], ms_combs: [0], ctildes: [2.0141271391649407, 0.68434322224654687]}
    - {mu0: 0, rank: 1, ndensity: 2, num_ms_combs: 1, mus: [2], ns: [4], ls: [0], ms_combs: [0], ctildes: [-0.49252316525269074, -0.92588903027022684]}
    - {mu0: 0, rank: 1, ndensity: 2, num_ms_combs: 1, mus: [2], ns: [5], ls: [0], ms_combs: [0], ctildes: [-0.39344144168985978, 0.64539756658666514]}
    - {mu0: 0, rank: 1, ndensity: 2, num_ms_combs: 1, mus: [2], ns: [6], ls: [0], ms_combs: [0], ctildes: [0.68923084531902135, -0.51913584291242898]}
    - {mu0: 0, rank: 1, ndensity: 2, num_ms_combs: 1, mus: [2], ns: [7], ls: [0], ms_combs: [0], ctildes: [-0.38849839611553466, 0.21088417235619777]}
    - {mu0: 0, rank: 1, ndensity: 2, num_ms_combs: 1, mus: [2], ns: [8], ls: [0], ms_combs: [0], ctildes: [0.15669664128523136, -0.075979268010638396]}
    - {mu0: 0, rank: 1, ndensity: 2, num_ms_combs: 1, mus: [3], ns: [1], ls: [0], ms_combs: [0], ctildes: [1.0600012136935499, 0.74682786053269046]}
    - {mu0: 0, rank: 1, ndensity: 2, num_ms_combs: 1, mus: [3], ns: [2], ls: [0], ms_combs: [0], ctildes: [-0.73524789498629095, 0.80138857625653082]}
    - {mu0: 0, rank: 1, ndensity: 2, num_ms_combs: 1, mus: [3], ns: [3], ls: [0], ms_combs: [0], ctildes: [-0.26027168637953529, 0.79419709409672901]}
    - {mu0: 0, rank: 1, ndensity: 2, num_ms_combs: 1, mus: [3], ns: [4], ls: [0], ms_combs: [0], ctildes: [0.5164501437245147, 0.12508898817610381]}
    - {mu0: 0, rank: 1, ndensity: 2, num_ms_combs: 1, mus: [3], ns: [5], ls: [0], ms_combs: [0], ctildes: [-0.48156953198332048, -0.40453014896589123]}
    - {mu0: 0, rank: 1, ndensity: 2, num_ms_combs: 1, mus: [3], ns: [6], ls: [0], ms_combs: [0], ctildes: [0.44718924548771721, 0.26890699548947122]}
    - {mu0: 0, rank: 1, ndensity: 2, num_ms_combs: 1, mus: [3], ns: [7], ls: [0], ms_combs: [0], ctildes: [0.15239985019013014, -0.12089162720887572]}
    - {mu0: 0, rank: 1, ndensity: 2, num_ms_combs: 1, mus: [3], ns: [8], ls: [0], ms_combs: [0], ctildes: [-0.32568524683493899, 0.38832083859196947]}
    - {mu0: 0, rank: 2, ndensity: 2, num_ms_combs: 1, mus: [0, 0], ns: [1, 1], ls: [0, 0], ms_combs: [0, 0], ctildes: [1.6065435875882759, 0.31247340184658423]}
    - {mu0: 0, rank: 2, ndensity: 2, num_ms_combs: 2, mus: [0, 0], ns: [1, 1], ls: [1, 1], ms_combs: [0, 0, 1, -1], ctildes: [0.52753217906258987, 0.1540760210807163, -1.0550643581251797, -0.30815204216143255]}
    - {mu0: 0, rank: 2, ndensity: 2, num_ms_combs: 3, mus: [0, 0], ns: [1, 1], ls: [2, 2], ms_combs: [0, 0, 1, -1, 2, -2], ctildes: [0.74387077238045041, 0.26998521138510206, -1.487741544760901, -0.53997042277020424, 1.4877415447609015, 0.53997042277020435]}
    - {mu0: 0, rank: 2, ndensity: 2, num_ms_combs: 4, mus: [0, 0], ns: [1, 1], ls: [3, 3], ms_combs: [0, 0, 1, -1, 2, -2, 3, -3], ctildes: [0.17933097876069976, -0.11077615422790291, -0.35866195752139951, 0.22155230845580581, 0.35866195752139945, -0.22155230845580579, -0.35866195752139945, 0.22155230845580579]}
    - {mu0: 0, rank: 2, ndensity: 2, num_ms_combs: 1, mus: [0, 0], ns: [1, 2], ls: [0, 0], ms_combs: [0, 0], ctildes: [-0.80681645706171878, -0.34831321835104084]}
    - {mu0: 0, rank: 2, ndensity: 2, num_ms_combs: 2, mus: [0, 0], ns: [1, 2], ls: [1, 1], ms_combs: [0, 0, 1, -1], ctildes: [-0.64583151234375791, -0.17571242608305668, 1.2916630246875156, 0.3514248521661133]}
    - {mu0: 0, rank: 2, ndensity: 2, num_ms_combs: 3, mus: [0, 0], ns: [1, 2], ls: [2, 2], ms_combs: [0, 0, 1, -1, 2, -2], ctildes: [-0.4969246815905376, 0.076464007354710969, 0.99384936318107531, -0.15292801470942197, -0.99384936318107553, 0.15292801470942199]}
    - {mu0: 0, rank: 2, ndensity: 2, num_ms_combs: 4, mus: [0, 0], ns: [1, 2], ls: [3, 3], ms_combs: [0, 0, 1, -1, 2, -2, 3, -3], ctildes: [0.11545123647379056, -0.028072087031129699, -0.23090247294758112, 0.056144174062259397, 0.23090247294758109, -0.05614417406225939, -0.23090247294758109, 0.05614417406225939]}
    - {mu0: 0, rank: 2, ndensity: 2, num_ms_combs: 1, mus: [0, 0], ns: [1, 3], ls: [0, 0], ms_combs: [0, 0], ctildes: [0.31490344040174423, 0.17740111412347945]}
    - {mu0: 0, rank: 2, ndensity: 2, num_ms_combs: 2, mus: [0, 0], ns: [1, 3], ls: [1, 1], ms_combs: [0, 0, 1, -1], ctildes: [-0.1539705521678188, 0.20162281247591915, 0.30794110433563754, -0.40324562495183824]}
    - {mu0: 0, rank: 2, ndensity: 2, num_ms_combs: 3, mus: [0, 0], ns: [1, 3], ls: [2, 2], ms_combs: [0, 0, 1, -1, 2, -2], ctildes: [0.13862717162871557, -0.12491119383731392, -0.2772543432574312, 0.24982238767462786, 0.27725434325743126, -0.24982238767462792]}
    - {mu0: 0, rank: 2, ndensity: 2, num_ms_combs: 1, mus: [0, 0], ns: [1, 4], ls: [0, 0], ms_combs: [0, 0], ctildes: [1.1047816086395643, 0.35422603604782771]}
    - {mu0: 0, rank: 2, ndensity: 2, num_ms_combs: 2, mus: [0, 0], ns: [1, 4], ls: [1, 1], ms_combs: [0, 0, 1, -1], ctildes: [0.25065860468308432, -0.1854695262703738, -0.50131720936616853, 0.37093905254074749]}
    - {mu0: 0, rank: 2, ndensity: 2, num_ms_combs: 3, mus: [0, 0], ns: [1, 4], ls: [2, 2], ms_combs: [0, 0, 1, -1, 2, -2], ctildes: [0.099296289162115359, 0.033237148813561379, -0.19859257832423075, -0.066474297627122772, 0.1985925783242308, 0.066474297627122786]}
    - {mu0: 0, rank: 2, ndensity: 2, num_ms_combs: 1, mus: [0, 0], ns: [1, 5], ls: [0, 0], ms_combs: [0, 0], ctildes: [0.26411117816944235, -0.56882450563854292]}
    - {mu0: 0, rank: 2, ndensity: 2, num_ms_combs: 2, mus: [0, 0], ns: [1, 5], ls: [1, 1], ms_combs: [0, 0, 1, -1], ctildes: [-0.17571399192548529, 0.064074528802000971, 0.35142798385097052, -0.12814905760400191]}
    - {mu0: 0, rank: 2, ndensity: 2, num_ms_combs: 1, mus: [0, 0], ns: [1, 6], ls: [0, 0], ms_combs: [0, 0], ctildes: [0.67118277133194582, 0.094290433411310909]}
    - {mu0: 0, rank: 2, ndensity: 2, num_ms_combs: 2, mus: [0, 0], ns: [1, 6], ls: [1, 1], ms_combs: [0, 0, 1, -1], ctildes: [-0.29749015839134285, 0.17676545902125354, 0.59498031678268548, -0.35353091804250703]}
    - {mu0: 0, rank: 2, ndensity: 2, num_ms_combs: 1, mus: [0, 0], ns: [2, 2], ls: [0, 0], ms_combs: [0, 0], ctildes: [-0.52686115015842749, -0.19088975533631103]}
    - {mu0: 0, rank: 2, ndensity: 2, num_ms_combs: 2, mus: [0, 0], ns: [2, 2], ls: [1, 1], ms_combs: [0, 0, 1, -1], ctildes: [0.13523516963828297, -0.013256315008120355, -0.27047033927656589, 0.026512630016240706]}
    - {mu0: 0, rank: 2, ndensity: 2, num_ms_combs: 3, mus: [0, 0], ns: [2, 2], ls: [2, 2], ms_combs: [0, 0, 1, -1, 2, -2], ctildes: [-0.089992764579537601, 0.24445391066406916, 0.17998552915907523, -0.48890782132813837, -0.17998552915907529, 0.48890782132813848]}
    - {mu0: 0, rank: 2, ndensity: 2, num_ms_combs: 1, mus: [0, 0], ns: [2, 3], ls: [0, 0], ms_combs: [0, 0], ctildes: [0.076937163944614861, -0.15776788703027661]}
    - {mu0: 0, rank: 2, ndensity: 2, num_ms_combs: 2, mus: [0, 0], ns: [2, 3], ls: [1, 1], ms_combs: [0, 0, 1, -1], ctildes: [-0.13001354762472864, 0.014923633550765857, 0.26002709524945722, -0.029847267101531707]}
    - {mu0: 0, rank: 2, ndensity: 2, num_ms_combs: 3, mus: [0, 0], ns: [2, 3], ls: [2, 2], ms_combs: [0, 0, 1, -1, 2, -2], ctildes: [-0.12018518782546568, 0.16206096378904761, 0.24037037565093139, -0.32412192757809527, -0.24037037565093144, 0.32412192757809533]}
    - {mu0: 0, rank: 2, ndensity: 2, num_ms_combs: 1, mus: [0, 0], ns: [2, 4], ls: [0, 0], ms_combs: [0, 0], ctildes: [0.46509768930007644, -0.084088160059393319]}
    - {mu0: 0, rank: 2, ndensity: 2, num_ms_combs: 2, mus: [0, 0], ns: [2, 4], ls: [1, 1], ms_combs: [0, 0, 1, -1], ctildes: [-0.23796230777862462, -0.052328514184638408, 0.47592461555724913, 0.10465702836927679]}
    - {mu0: 0, rank: 2, ndensity: 2, num_ms_combs: 1, mus: [0, 0], ns: [2, 5], ls: [0, 0], ms_combs: [0, 0], ctildes: [0.42323572835933077, -0.32770031110381032]}
    - {mu0: 0, rank: 2, ndensity: 2, num_ms_combs: 2, mus: [0, 0], ns: [2, 5], ls: [1, 1], ms_combs: [0, 0, 1, -1], ctildes: [-0.13206374860881748, 0.2128903692946556, 0.2641274972176349, -0.42578073858931115]}
    - {mu0: 0, rank: 2, ndensity: 2, num_ms_combs: 1, mus: [0, 0], ns: [2, 6], ls: [0, 0], ms_combs: [0, 0], ctildes: [-0.18292955191868429, -0.065160551906966777]}
    - {mu0: 0, rank: 2, ndensity: 2, num_ms_combs: 1, mus: [0, 0], ns: [3, 3], ls: [0, 0], ms_combs: [0, 0], ctildes: [-0.022881722733176069, -0.57362441830054922]}
    - {mu0: 0, rank: 2, ndensity: 2, num_ms_combs: 2, mus: [0, 0], ns: [3, 3], ls: [1, 1], ms_combs: [0, 0, 1, -1], ctildes: [-0.052665034738175263, 0.065675180233492628, 0.1053300694763505, -0.13135036046698523]}
    - {mu0: 0, rank: 2, ndensity: 2, num_ms_combs: 1, mus: [0, 0], ns: [3, 4], ls: [0, 0], ms_combs: [0, 0], ctildes: [0.060207028889246235, -0.18431334912827807]}
    - {mu0: 0, rank: 2, ndensity: 2, num_ms_combs: 2, mus: [0, 0], ns: [3, 4], ls: [1, 1], ms_combs: [0, 0, 1, -1], ctildes: [-0.081803694394776208, 0.31510953469922343, 0.16360738878955239, -0.63021906939844674]}
    - {mu0: 0, rank: 2, ndensity: 2, num_ms_combs: 1, mus: [0, 0], ns: [3, 5], ls: [0, 0], ms_combs: [0, 0], ctildes: [-0.39991530167803502, 0.032695814127633192]}
    - {mu0: 0, rank: 2, ndensity: 2, num_ms_combs: 1, mus: [0, 0], ns: [3, 6], ls: [0, 0], ms_combs: [0, 0], ctildes: [-0.0060743474113797557, 0.18964638175022605]}
    - {mu0: 0, rank: 2, ndensity: 2, num_ms_combs: 1, mus: [0, 0], ns: [4, 4], ls: [0, 0], ms_combs: [0, 0], ctildes: [0.10031966366113393, 0.17230672073571768]}
    - {mu0: 0, rank: 2, ndensity: 2, num_ms_combs: 1, mus: [0, 0], ns: [4, 5], ls: [0, 0], ms_combs: [0, 0], ctildes: [-0.89962808891802393, 0.63561789732838359]}
    - {mu0: 0, rank: 2, ndensity: 2, num_ms_combs: 1, mus: [0, 1], ns: [1, 1], ls: [0, 0], ms_combs: [0, 0], ctildes: [1.2839026730813796, 0.40373516569721396]}
    - {mu0: 0, rank: 2, ndensity: 2, num_ms_combs: 2, mus: [0, 1], ns: [1, 1], ls: [1, 1], ms_combs: [0, 0, 1, -1], ctildes: [-0.093939211742746095, -0.026672125580751022, 0.18787842348549216, 0.053344251161502029]}
    - {mu0: 0, rank: 2, ndensity: 2, num_ms_combs: 3, mus: [0, 1], ns: [1, 1], ls: [2, 2], ms_combs: [0, 0, 1, -1, 2, -2], ctildes: [-0.078832192092900669, -0.23179759645601816, 0.15766438418580137, 0.46359519291203638, -0.15766438418580139, -0.46359519291203649]}
    - {mu0: 0, rank: 2, ndensity: 2, num_ms_combs: 1, mus: [0, 1], ns: [1, 2], ls: [0, 0], ms_combs: [0, 0], ctildes: [1.1762055283170791, 0.63657891986038617]}
    - {mu0: 0, rank: 2, ndensity: 2, num_ms_combs: 2, mus: [0, 1], ns: [1, 2], ls: [1, 1], ms_combs: [0, 0, 1, -1], ctildes: [0.16287499501558686, 0.078442291632403752, -0.32574999003117366, -0.15688458326480748]}
    - {mu0: 0, rank: 2, ndensity: 2, num_ms_combs: 3, mus: [0, 1], ns: [1, 2], ls: [2, 2], ms_combs: [0, 0, 1, -1, 2, -2], ctildes: [-0.14111318957793595, 0.083540819916181314, 0.28222637915587195, -0.16708163983236266, -0.28222637915587201, 0.16708163983236268]}
    - {mu0: 0, rank: 2, ndensity: 2, num_ms_combs: 1, mus: [0, 1], ns: [1, 3], ls: [0, 0], ms_combs: [0, 0], ctildes: [2.0644620051966793, 0.72523837696450855]}
    - {mu0: 0, rank: 2, ndensity: 2, num_ms_combs: 2, mus: [0, 1], ns: [1, 3], ls: [1, 1], ms_combs: [0, 0, 1, -1], ctildes: [0.023596299895477946, 0.27700286680980901, -0.047192599790955879, -0.55400573361961791]}
    - {mu0: 0, rank: 2, ndensity: 2, num_ms_combs: 1, mus: [0, 1], ns: [1, 4], ls: [0, 0], ms_combs: [0, 0], ctildes: [-0.1328155042948059, 0.12458874970797842]}
    - {mu0: 0, rank: 2, ndensity: 2, num_ms_combs: 2, mus: [0, 1], ns: [1, 4], ls: [1, 1], ms_combs: [0, 0, 1, -1], ctildes: [0.24737399179531591, -0.19990173898037225, -0.49474798359063171, 0.39980347796074439]}
    - {mu0: 0, rank: 2, ndensity: 2, num_ms_combs: 1, mus: [0, 1], ns: [1, 5], ls: [0, 0], ms_combs: [0, 0], ctildes: [0.17564188346000509, 0.65295051459410136]}
    - {mu0: 0, rank: 2, ndensity: 2, num_ms_combs: 1, mus: [0, 1], ns: [1, 6], ls: [0, 0], ms_combs: [0, 0], ctildes: [0.51896417828067087, -0.43506275293728236]}
    - {mu0: 0, rank: 2, ndensity: 2, num_ms_combs: 1, mus: [0, 1], ns: [2, 1], ls: [0, 0], ms_combs: [0, 0], ctildes: [0.27148637493155331, 0.11522637176011367]}
    - {mu0: 0, rank: 2, ndensity: 2, num_ms_combs: 2, mus: [0, 1], ns: [2, 1], ls: [1, 1], ms_combs: [0, 0, 1, -1], ctildes: [0.15589529380810488, 0.062635364855621573, -0.3117905876162097, -0.12527072971124312]}
    - {mu0: 0, rank: 2, ndensity: 2, num_ms_combs: 3, mus: [0, 1], ns: [2, 1], ls: [2, 2], ms_combs: [0, 0, 1, -1, 2, -2], ctildes: [0.00058813368464073258, -0.1848915647076545, -0.0011762673692814652, 0.36978312941530905, 0.0011762673692814656, -0.36978312941530916]}
    - {mu0: 0, rank: 2, ndensity: 2, num_ms_combs: 1, mus: [0, 1], ns: [2, 2], ls: [0, 0], ms_combs: [0, 0], ctildes: [-0.93450673923292304, 0.45946205801814954]}
    - {mu0: 0, rank: 2, ndensity: 2, num_ms_combs: 2, mus: [0, 1], ns: [2, 2], ls: [1, 1], ms_combs: [0, 0, 1, -1], ctildes: [0.17411955536902615, 0.24171609373875164, -0.34823911073805225, -0.48343218747750316]}
    - {mu0: 0, rank: 2, ndensity: 2, num_ms_combs: 1, mus: [0, 1], ns: [2, 3], ls: [0, 0], ms_combs: [0, 0], ctildes: [-0.40180615210761789, -0.028563257598038891]}
    - {mu0: 0, rank: 2, ndensity: 2, num_ms_combs: 2, mus: [0, 1], ns: [2, 3], ls: [1, 1], ms_combs: [0, 0, 1, -1], ctildes: [-0.081850481090279967, -0.21732531263446009, 0.16370096218055991, 0.43465062526892007]}
    - {mu0: 0, rank: 2, ndensity: 2, num_ms_combs: 1, mus: [0, 1], ns: [2, 4], ls: [0, 0], ms_combs: [0, 0], ctildes: [0.57722173047310887, 0.19994902133467737]}
    - {mu0: 0, rank: 2, ndensity: 2, num_ms_combs: 1, mus: [0, 1], ns: [2, 5], ls: [0, 0], ms_combs: [0, 0], ctildes: [0.01912519637029611, -0.092783660889033087]}
    - {mu0: 0, rank: 2, ndensity: 2, num_ms_combs: 1, mus: [0, 1], ns: [3, 1], ls: [0, 0], ms_combs: [0, 0], ctildes: [0.48729078962184108, 0.23847065067883899]}
    - {mu0: 0, rank: 2, ndensity: 2, num_ms_combs: 2, mus: [0, 1], ns: [3, 1], ls: [1, 1], ms_combs: [0, 0, 1, -1], ctildes: [0.098787860343369019, 0.075335542317356299, -0.19757572068673801, -0.15067108463471257]}
    - {mu0: 0, rank: 2, ndensity: 2, num_ms_combs: 1, mus: [0, 1], ns: [3, 2], ls: [0, 0], ms_combs: [0, 0], ctildes: [-1.1431231251076737, 0.2568695831530261]}
    - {mu0: 0, rank: 2, ndensity: 2, num_ms_combs: 2, mus: [0, 1], ns: [3, 2], ls: [1, 1], ms_combs: [0, 0, 1, -1], ctildes: [-0.29872898651139712, 0.14001680560667454, 0.59745797302279413, -0.28003361121334902]}
    - {mu0: 0, rank: 2, ndensity: 2, num_ms_combs: 1, mus: [0, 1], ns: [3, 3], ls: [0, 0], ms_combs: [0, 0], ctildes: [0.25882253586962733, 0.28737441728035451]}
    - {mu0: 0, rank: 2, ndensity: 2, num_ms_combs: 1, mus: [0, 1], ns: [3, 4], ls: [0, 0], ms_combs: [0, 0], ctildes: [-0.46421702301024181, 0.28468417980802552]}
    - {mu0: 0, rank: 2, ndensity: 2, num_ms_combs: 1, mus: [0, 1], ns: [4, 1], ls: [0, 0], ms_combs: [0, 0], ctildes: [-0.21444826195821823, -0.10376948477318153]}
    - {mu0: 0, rank: 2, ndensity: 2, num_ms_combs: 2, mus: [0, 1], ns: [4, 1], ls: [1, 1], ms_combs: [0, 0, 1, -1], ctildes: [-0.31601088170006469, -0.31441092949841659, 0.63202176340012928, 0.62882185899683307]}
    - {mu0: 0, rank: 2, ndensity: 2, num_ms_combs: 1, mus: [0, 1], ns: [4, 2], ls: [0, 0], ms_combs: [0, 0], ctildes: [0.33767916512236901, -0.12214736477629193]}
    - {mu0: 0, rank: 2, ndensity: 2, num_ms_combs: 1, mus: [0, 1], ns: [4, 3], ls: [0, 0], ms_combs: [0, 0], ctildes: [0.044519771693555636, 0.19282356969610462]}
    - {mu0: 0, rank: 2, ndensity: 2, num_ms_combs: 1, mus: [0, 1], ns: [5, 1], ls: [0, 0], ms_combs: [0, 0], ctildes: [-0.58451845793521573, -0.22983631542389757]}
    - {mu0: 0, rank: 2, ndensity: 2, num_ms_combs: 1, mus: [0, 1], ns: [5, 2], ls: [0, 0], ms_combs: [0, 0], ctildes: [0.37939334963063831, -0.42128683485983398]}
    - {mu0: 0, rank: 2, ndensity: 2, num_ms_combs: 1, mus: [0, 1], ns: [6, 1], ls: [0, 0], ms_combs: [0, 0], ctildes: [0.87665749622232803, -0.25872044893268087]}
    - {mu0: 0, rank: 2, ndensity: 2, num_ms_combs: 1, mus: [0, 2], ns: [1, 1], ls: [0, 0], ms_combs: [0, 0], ctildes: [0.84536128240350228, 0.26680678935564078]}
    - {mu0: 0, rank: 2, ndensity: 2, num_ms_combs: 2, mus: [0, 2], ns: [1, 1], ls: [1, 1], ms_combs: [0, 0, 1, -1], ctildes: [-0.45039406308114555, 0.072218354562644305, 0.90078812616229098, -0.14443670912528858]}
    - {mu0: 0, rank: 2, ndensity: 2, num_ms_combs: 3, mus: [0, 2], ns: [1, 1], ls: [2, 2], ms_combs: [0, 0, 1, -1, 2, -2], ctildes: [0.041826067758742917, 0.11653971142766205, -0.083652135517485848, -0.23307942285532413, 0.083652135517485862, 0.23307942285532418]}
    - {mu0: 0, rank: 2, ndensity: 2, num_ms_combs: 1, mus: [0, 2], ns: [1, 2], ls: [0, 0], ms_combs: [0, 0], ctildes: [1.318479052825007, 0.61174618795009872]}
    - {mu0: 0, rank: 2, ndensity: 2, num_ms_combs: 2, mus: [0, 2], ns: [1, 2], ls: [1, 1], ms_combs: [0, 0, 1, -1], ctildes: [-0.066777773552008937, -0.63981062352059392, 0.13355554710401785, 1.2796212470411876]}
    - {mu0: 0, rank: 2, ndensity: 2, num_ms_combs: 3, mus: [0, 2], ns: [1, 2], ls: [2, 2], ms_combs: [0, 0, 1, -1, 2, -2], ctildes: [0.032097839096345428, -0.081756729833004554, -0.064195678192690869, 0.16351345966600911, 0.064195678192690883, -0.16351345966600916]}
    - {mu0: 0, rank: 2, ndensity: 2, num_ms_combs: 1, mus: [0, 2], ns: [1, 3], ls: [0, 0], ms_combs: [0, 0], ctildes: [1.7794519512958744, 0.82446531059693373]}
    - {mu0: 0, rank: 2, ndensity: 2, num_ms_combs: 2, mus: [0, 2], ns: [1, 3], ls: [1, 1], ms_combs: [0, 0, 1, -1], ctildes: [-0.6427095793772768, 0.13237664432000656, 1.2854191587545534, -0.26475328864001313]}
    - {mu0: 0, rank: 2, ndensity: 2, num_ms_combs: 1, mus: [0, 2], ns: [1, 4], ls: [0, 0], ms_combs: [0, 0], ctildes: [-0.24050552210054807, -0.35692282934851355]}
    - {mu0: 0, rank: 2, ndensity: 2, num_ms_combs: 2, mus: [0, 2], ns: [1, 4], ls: [1, 1], ms_combs: [0, 0, 1, -1], ctildes: [0.13528460368336107, 0.025261829378055187, -0.27056920736672208, -0.050523658756110361]}
    - {mu0: 0, rank: 2, ndensity: 2, num_ms_combs: 1, mus: [0, 2], ns: [1, 5], ls: [0, 0], ms_combs: [0, 0], ctildes: [-0.48066587443080605, 0.078296403331354625]}
    - {mu0: 0, rank: 2, ndensity: 2, num_ms_combs: 1, mus: [0, 2], ns: [1, 6], ls: [0, 0], ms_combs: [0, 0], ctildes: [-0.24465020071634988, 0.20834518665781088]}
    - {mu0: 0, rank: 2, ndensity: 2, num_ms_combs: 1, mus: [0, 2], ns: [2, 1], ls: [0, 0], ms_combs: [0, 0], ctildes: [-0.57705947790576617, 0.26565130192188263]}
    - {mu0: 0, rank: 2, ndensity: 2, num_ms_combs: 2, mus: [0, 2], ns: [2, 1], ls: [1, 1], ms_combs: [0, 0, 1, -1], ctildes: [-0.21315890716200275, -0.16714914527023172, 0.42631781432400545, 0.33429829054046339]}
    - {mu0: 0, rank: 2, ndensity: 2, num_ms_combs: 3, mus: [0, 2], ns: [2, 1], ls: [2, 2], ms_combs: [0, 0, 1, -1, 2, -2], ctildes: [-0.01754817351624861, -0.28665820074067361, 0.035096347032497227, 0.57331640148134733, -0.035096347032497234, -0.57331640148134744]}
    - {mu0: 0, rank: 2, ndensity: 2, num_ms_combs: 1, mus: [0, 2], ns: [2, 2], ls: [0, 0], ms_combs: [0, 0], ctildes: [-1.2265104503837316, 0.086381920018767974]}
    - {mu0: 0, rank: 2, ndensity: 2, num_ms_combs: 2, mus: [0, 2], ns: [2, 2], ls: [1, 1], ms_combs: [0, 0, 1, -1], ctildes: [-0.17362963636062459, -0.25080931377704679, 0.34725927272124912, 0.50161862755409348]}
    - {mu0: 0, rank: 2, ndensity: 2, num_ms_combs: 1, mus: [0, 2], ns: [2, 3], ls: [0, 0], ms_combs: [0, 0], ctildes: [-0.53967538845188112, 0.018117386772766846]}
    - {mu0: 0, rank: 2, ndensity: 2, num_ms_combs: 2, mus: [0, 2], ns: [2, 3], ls: [1, 1], ms_combs: [0, 0, 1, -1], ctildes: [0.1235243463856804, 0.35871175093751384, -0.24704869277136077, -0.71742350187502746]}
    - {mu0: 0, rank: 2, ndensity: 2, num_ms_combs: 1, mus: [0, 2], ns: [2, 4], ls: [0, 0], ms_combs: [0, 0], ctildes: [-0.53471651434654832, -0.48391953468731169]}
    - {mu0: 0, rank: 2, ndensity: 2, num_ms_combs: 1, mus: [0, 2], ns: [2, 5], ls: [0, 0], ms_combs: [0, 0], ctildes: [-0.36799780304788532, 0.6769252454580692]}
    - {mu0: 0, rank: 2, ndensity: 2, num_ms_combs: 1, mus: [0, 2], ns: [3, 1], ls: [0, 0], ms_combs: [0, 0], ctildes: [-1.0563712189787036, 0.31354250104139886]}
    - {mu0: 0, rank: 2, ndensity: 2, num_ms_combs: 2, mus: [0, 2], ns: [3, 1], ls: [1, 1], ms_combs: [0, 0, 1, -1], ctildes: [-0.013806524721514595, 0.011562997004161942, 0.027613049443029183, -0.02312599400832388]}
    - {mu0: 0, rank: 2, ndensity: 2, num_ms_combs: 1, mus: [0, 2], ns: [3, 2], ls: [0, 0], ms_combs: [0, 0], ctildes: [-0.83051727245131846, -0.57479837026900527]}
    - {mu0: 0, rank: 2, ndensity: 2, num_ms_combs: 2, mus: [0, 2], ns: [3, 2], ls: [1, 1], ms_combs: [0, 0, 1, -1], ctildes: [0.26836736133521261, -0.26267384098900798, -0.5367347226704251, 0.52534768197801585]}
    - {mu0: 0, rank: 2, ndensity: 2, num_ms_combs: 1, mus: [0, 2], ns: [3, 3], ls: [0, 0], ms_combs: [0, 0], ctildes: [1.2754162463153955, -0.23383868528596405]}
    - {mu0: 0, rank: 2, ndensity: 2, num_ms_combs: 1, mus: [0, 2], ns: [3, 4], ls: [0, 0], ms_combs: [0, 0], ctildes: [-0.34965333400600124, 0.17147072254459189]}
    - {mu0: 0, rank: 2, ndensity: 2, num_ms_combs: 1, mus: [0, 2], ns: [4, 1], ls: [0, 0], ms_combs: [0, 0], ctildes: [1.4052590656744548, 0.45613525547055295]}
    - {mu0: 0, rank: 2, ndensity: 2, num_ms_combs: 2, mus: [0, 2], ns: [4, 1], ls: [1, 1], ms_combs: [0, 0, 1, -1], ctildes: [-0.092135359541447442, -0.16805729835066541, 0.18427071908289486, 0.33611459670133076]}
    - {mu0: 0, rank: 2, ndensity: 2, num_ms_combs: 1, mus: [0, 2], ns: [4, 2], ls: [0, 0], ms_combs: [0, 0], ctildes: [0.074427612346490327, 0.3931208316202523]}
    - {mu0: 0, rank: 2, ndensity: 2, num_ms_combs: 1, mus: [0, 2], ns: [4, 3], ls: [0, 0], ms_combs: [0, 0], ctildes: [-0.44464676375717277, 0.079296972145802863]}
    - {mu0: 0, rank: 2, ndensity: 2, num_ms_combs: 1, mus: [0, 2], ns: [5, 1], ls: [0, 0], ms_combs: [0, 0], ctildes: [-0.61841159971276338, -0.14499515637748134]}
    - {mu0: 0, rank: 2, ndensity: 2, num_ms_combs: 1, mus: [0, 2], ns: [5, 2], ls: [0, 0], ms_combs: [0, 0], ctildes: [0.2285238973849682, -0.46091840462837264]}
    - {mu0: 0, rank: 2, ndensity: 2, num_ms_combs: 1, mus: [0, 2], ns: [6, 1], ls: [0, 0], ms_combs: [0, 0], ctildes: [-0.26284665342007907, 0.34502955389957884]}
    - {mu0: 0, rank: 2, ndensity: 2, num_ms_combs: 1, mus: [0, 3], ns: [1, 1], ls: [0, 0], ms_combs: [0, 0], ctildes: [0.36424572274509331, 0.1041559080947773]}
    - {mu0: 0, rank: 2, ndensity: 2, num_ms_combs: 2, mus: [0, 3], ns: [1, 1], ls: [1, 1], ms_combs: [0, 0, 1, -1], ctildes: [-0.12997514417616468, -0.016141180427039162, 0.25995028835232931, 0.032282360854078318]}
    - {mu0: 0, rank: 2, ndensity: 2, num_ms_combs: 3, mus: [0, 3], ns: [1, 1], ls: [2, 2], ms_combs: [0, 0, 1, -1, 2, -2], ctildes: [-0.097093626375670705, 0.097916726399794277, 0.19418725275134144, -0.19583345279958858, -0.19418725275134149, 0.19583345279958861]}
    - {mu0: 0, rank: 2, ndensity: 2, num_ms_combs: 1, mus: [0, 3], ns: [1, 2], ls: [0, 0], ms_combs: [0, 0], ctildes: [-0.036078827775629242, -0.12803114390056577]}
    - {mu0: 0, rank: 2, ndensity: 2, num_ms_combs: 2, mus: [0, 3], ns: [1, 2], ls: [1, 1], ms_combs: [0, 0, 1, -1], ctildes: [-0.051396775874951284, 0.21521760809396606, 0.10279355174990255, -0.43043521618793207]}
    - {mu0: 0, rank: 2, ndensity: 2, num_ms_combs: 3, mus: [0, 3], ns: [1, 2], ls: [2, 2], ms_combs: [0, 0, 1, -1, 2, -2], ctildes: [-0.17616532199393958, 0.19357997851278183, 0.35233064398787922, -0.38715995702556372, -0.35233064398787933, 0.38715995702556377]}
    - {mu0: 0, rank: 2, ndensity: 2, num_ms_combs: 1, mus: [0, 3], ns: [1, 3], ls: [0, 0], ms_combs: [0, 0], ctildes: [0.29135715208511487, 0.049694437431007356]}
    - {mu0: 0, rank: 2, ndensity: 2, num_ms_combs: 2, mus: [0, 3], ns: [1, 3], ls: [1, 1], ms_combs: [0, 0, 1, -1], ctildes: [0.11469732835877597, 0.24716421355132931, -0.22939465671755188, -0.49432842710265856]}
    - {mu0: 0, rank: 2, ndensity: 2, num_ms_combs: 1, mus: [0, 3], ns: [1, 4], ls: [0, 0], ms_combs: [0, 0], ctildes: [0.25713667306163435, 0.35768279986501605]}
    - {mu0: 0, rank: 2, ndensity: 2, num_ms_combs: 2, mus: [0, 3], ns: [1, 4], ls: [1, 1], ms_combs: [0, 0, 1, -1], ctildes: [0.13713641714904382, -0.13735650136051841, -0.27427283429808763, 0.27471300272103677]}
    - {mu0: 0, rank: 2, ndensity: 2, num_ms_combs: 1, mus: [0, 3], ns: [1, 5], ls: [0, 0], ms_combs: [0, 0], ctildes: [-0.21128067067489165, 0.3625316298424997]}
    - {mu0: 0, rank: 2, ndensity: 2, num_ms_combs: 1, mus: [0, 3], ns: [1, 6], ls: [0, 0], ms_combs: [0, 0], ctildes: [-0.67775967937189019, 0.51760066936538929]}
    - {mu0: 0, rank: 2, ndensity: 2, num_ms_combs: 1, mus: [0, 3], ns: [2, 1], ls: [0, 0], ms_combs: [0, 0], ctildes: [0.40352883738565681, 0.20143977129606061]}
    - {mu0: 0, rank: 2, ndensity: 2, num_ms_combs: 2, mus: [0, 3], ns: [2, 1], ls: [1, 1], ms_combs: [0, 0, 1, -1], ctildes: [-0.00093217367231349958, 0.038347126703639101, 0.001864347344626999, -0.076694253407278187]}
    - {mu0: 0, rank: 2, ndensity: 2, num_ms_combs: 3, mus: [0, 3], ns: [2, 1], ls: [2, 2], ms_combs: [0, 0, 1, -1, 2, -2], ctildes: [-0.02862681767298917, 0.1322481572834211, 0.057253635345978347, -0.26449631456684219, -0.057253635345978361, 0.26449631456684231]}
    - {mu0: 0, rank: 2, ndensity: 2, num_ms_combs: 1, mus: [0, 3], ns: [2, 2], ls: [0, 0], ms_combs: [0, 0], ctildes: [-0.3796118189851016, 0.054231478622912631]}
    - {mu0: 0, rank: 2, ndensity: 2, num_ms_combs: 2, mus: [0, 3], ns: [2, 2], ls: [1, 1], ms_combs: [0, 0, 1, -1], ctildes: [-0.41780189257041289, 0.1388613669784616, 0.83560378514082556, -0.27772273395692315]}
    - {mu0: 0, rank: 2, ndensity: 2, num_ms_combs: 1, mus: [0, 3], ns: [2, 3], ls: [0, 0], ms_combs: [0, 0], ctildes: [0.40628609638245655, -0.0099691350152363439]}
    - {mu0: 0, rank: 2, ndensity: 2, num_ms_combs: 2, mus: [0, 3], ns: [2, 3], ls: [1, 1], ms_combs: [0, 0, 1, -1], ctildes: [-0.019146663468150936, 0.098082464220217144, 0.038293326936301865, -0.19616492844043426]}
    - {mu0: 0, rank: 2, ndensity: 2, num_ms_combs: 1, mus: [0, 3], ns: [2, 4], ls: [0, 0], ms_combs: [0, 0], ctildes: [-0.18375711246879317, 0.099771060600461231]}
    - {mu0: 0, rank: 2, ndensity: 2, num_ms_combs: 1, mus: [0, 3], ns: [2, 5], ls: [0, 0], ms_combs: [0, 0], ctildes: [-0.2544332822403243, 0.031508336588553967]}
    - {mu0: 0, rank: 2, ndensity: 2, num_ms_combs: 1, mus: [0, 3], ns: [3, 1], ls: [0, 0], ms_combs: [0, 0], ctildes: [0.6919806320093882, 0.26814479806020658]}
    - {mu0: 0, rank: 2, ndensity: 2, num_ms_combs: 2, mus: [0, 3], ns: [3, 1], ls: [1, 1], ms_combs: [0, 0, 1, -1], ctildes: [0.050855881544477829, 0.029863568499802699, -0.10171176308895565, -0.059727136999605385]}
    - {mu0: 0, rank: 2, ndensity: 2, num_ms_combs: 1, mus: [0, 3], ns: [3, 2], ls: [0, 0], ms_combs: [0, 0], ctildes: [-0.85582762340355467, -0.058694441264964113]}
    - {mu0: 0, rank: 2, ndensity: 2, num_ms_combs: 2, mus: [0, 3], ns: [3, 2], ls: [1, 1], ms_combs: [0, 0, 1, -1], ctildes: [0.15762153468593934, 0.1129592597237223, -0.31524306937187863, -0.22591851944744457]}
    - {mu0: 0, rank: 2, ndensity: 2, num_ms_combs: 1, mus: [0, 3], ns: [3, 3], ls: [0, 0], ms_combs: [0, 0], ctildes: [0.10517812736262891, -0.042026291055597541]}
    - {mu0: 0, rank: 2, ndensity: 2, num_ms_combs: 1, mus: [0, 3], ns: [3, 4], ls: [0, 0], ms_combs: [0, 0], ctildes: [0.50032286044256824, -0.40627335834796674]}
    - {mu0: 0, rank: 2, ndensity: 2, num_ms_combs: 1, mus: [0, 3], ns: [4, 1], ls: [0, 0], ms_combs: [0, 0], ctildes: [0.75877755616737674, -0.10128292844040759]}
    - {mu0: 0, rank: 2, ndensity: 2, num_ms_combs: 2, mus: [0, 3], ns: [4, 1], ls: [1, 1], ms_combs: [0, 0, 1, -1], ctildes: [-0.47993199988771845, 0.17095784866314592, 0.95986399977543679, -0.34191569732629179]}
    - {mu0: 0, rank: 2, ndensity: 2, num_ms_combs: 1, mus: [0, 3], ns: [4, 2], ls: [0, 0], ms_combs: [0, 0], ctildes: [0.096739356073860694, 0.11332045585987204]}
    - {mu0: 0, rank: 2, ndensity: 2, num_ms_combs: 1, mus: [0, 3], ns: [4, 3], ls: [0, 0], ms_combs: [0, 0], ctildes: [-0.020544636943044106, -0.1070129083143391]}
    - {mu0: 0, rank: 2, ndensity: 2, num_ms_combs: 1, mus: [0, 3], ns: [5, 1], ls: [0, 0], ms_combs: [0, 0], ctildes: [-0.0058306441364126401, -0.21117026284205676]}
    - {mu0: 0, rank: 2, ndensity: 2, num_ms_combs: 1, mus: [0, 3], ns: [5, 2], ls: [0, 0], ms_combs: [0, 0], ctildes: [0.14536938181227721, -0.051885879608356271]}
    - {mu0: 0, rank: 2, ndensity: 2, num_ms_combs: 1, mus: [0, 3], ns: [6, 1], ls: [0, 0], ms_combs: [0, 0], ctildes: [0.74118783111456055, 0.40257552699398019]}
    - {mu0: 0, rank: 2, ndensity: 2, num_ms_combs: 1, mus: [1, 1], ns: [1, 1], ls: [0, 0], ms_combs: [0, 0], ctildes: [1.2001753417052246, 0.57044823323934279]}
    - {mu0: 0, rank: 2, ndensity: 2, num_ms_combs: 2, mus: [1, 1], ns: [1, 1], ls: [1, 1], ms_combs: [0, 0, 1, -1], ctildes: [0.11836996163488507, -0.17554610323861561, -0.23673992326977011, 0.35109220647723116]}
    - {mu0: 0, rank: 2, ndensity: 2, num_ms_combs: 3, mus: [1, 1], ns: [1, 1], ls: [2, 2], ms_combs: [0, 0, 1, -1, 2, -2], ctildes: [0.35986231573836819, -0.12584825159842605, -0.71972463147673649, 0.25169650319685216, 0.7197246314767366, -0.25169650319685222]}
    - {mu0: 0, rank: 2, ndensity: 2, num_ms_combs: 1, mus: [1, 1], ns: [1, 2], ls: [0, 0], ms_combs: [0, 0], ctildes: [-0.20074009917441407, 0.30047617994003806]}
    - {mu0: 0, rank: 2, ndensity: 2, num_ms_combs: 2, mus: [1, 1], ns: [1, 2], ls: [1, 1], ms_combs: [0, 0, 1, -1], ctildes: [-0.72295401282326244, -0.16028616302864016, 1.4459080256465247, 0.32057232605728025]}
    - {mu0: 0, rank: 2, ndensity: 2, num_ms_combs: 3, mus: [1, 1], ns: [1, 2], ls: [2, 2], ms_combs: [0, 0, 1, -1, 2, -2], ctildes: [-0.019085439811530283, -0.14393437951966756, 0.038170879623060573, 0.28786875903933512, -0.03817087962306058, -0.28786875903933523]}
    - {mu0: 0, rank: 2, ndensity: 2, num_ms_combs: 1, mus: [1, 1], ns: [1, 3], ls: [0, 0], ms_combs: [0, 0], ctildes: [1.1304781562468114, 0.76228072347492737]}
    - {mu0: 0, rank: 2, ndensity: 2, num_ms_combs: 2, mus: [1, 1], ns: [1, 3], ls: [1, 1], ms_combs: [0, 0, 1, -1], ctildes: [0.21272062568513497, -0.057970621240631064, -0.42544125137026989, 0.1159412424812621]}
    - {mu0: 0, rank: 2, ndensity: 2, num_ms_combs: 1, mus: [1, 1], ns: [1, 4], ls: [0, 0], ms_combs: [0, 0], ctildes: [-0.30333229224352182, 0.28700252857250952]}
    - {mu0: 0, rank: 2, ndensity: 2, num_ms_combs: 2, mus: [1, 1], ns: [1, 4], ls: [1, 1], ms_combs: [0, 0, 1, -1], ctildes: [0.059342949830200394, 0.010237084531713066, -0.11868589966040076, -0.020474169063426126]}
    - {mu0: 0, rank: 2, ndensity: 2, num_ms_combs: 1, mus: [1, 1], ns: [1, 5], ls: [0, 0], ms_combs: [0, 0], ctildes: [0.38587427640966659, -0.41514620938930863]}
    - {mu0: 0, rank: 2, ndensity: 2, num_ms_combs: 1, mus: [1, 1], ns: [1, 6], ls: [0, 0], ms_combs: [0, 0], ctildes: [0.017552156118382289, 0.17448533959319928]}
    - {mu0: 0, rank: 2, ndensity: 2, num_ms_combs: 1, mus: [1, 1], ns: [2, 2], ls: [0, 0], ms_combs: [0, 0], ctildes: [0.25051772078287637, 1.1285249821084227]}
    - {mu0: 0, rank: 2, ndensity: 2, num_ms_combs: 2, mus: [1, 1], ns: [2, 2], ls: [1, 1], ms_combs: [0, 0, 1, -1], ctildes: [0.060839534811297613, 0.13289465177661114, -0.1216790696225952, -0.26578930355322222]}
    - {mu0: 0, rank: 2, ndensity: 2, num_ms_combs: 1, mus: [1, 1], ns: [2, 3], ls: [0, 0], ms_combs: [0, 0], ctildes: [0.50067662304194704, 0.23138702031400113]}
    - {mu0: 0, rank: 2, ndensity: 2, num_ms_combs: 2, mus: [1, 1], ns: [2, 3], ls: [1, 1], ms_combs: [0, 0, 1, -1], ctildes: [0.068433149626402387, -0.21267758158899411, -0.13686629925280475, 0.4253551631779881]}
    - {mu0: 0, rank: 2, ndensity: 2, num_ms_combs: 1, mus: [1, 1], ns: [2, 4], ls: [0, 0], ms_combs: [0, 0], ctildes: [0.23355457966381141, 0.85869996255853009]}
    - {mu0: 0, rank: 2, ndensity: 2, num_ms_combs: 1, mus: [1, 1], ns: [3, 3], ls: [0, 0], ms_combs: [0, 0], ctildes: [-0.049955628350006921, 0.25121364043766681]}
    - {mu0: 0, rank: 2, ndensity: 2, num_ms_combs: 1, mus: [1, 2], ns: [1, 1], ls: [0, 0], ms_combs: [0, 0], ctildes: [1.1024743062668778, -0.041483845376597044]}
    - {mu0: 0, rank: 2, ndensity: 2, num_ms_combs: 2, mus: [1, 2], ns: [1, 1], ls: [1, 1], ms_combs: [0, 0, 1, -1], ctildes: [-0.30276933944358542, 0.060446757693697784, 0.60553867888717072, -0.12089351538739554]}
    - {mu0: 0, rank: 2, ndensity: 2, num_ms_combs: 3, mus: [1, 2], ns: [1, 1], ls: [2, 2], ms_combs: [0, 0, 1, -1, 2, -2], ctildes: [-0.020809680726677614, 0.23702386206979514, 0.041619361453355236, -0.47404772413959034, -0.041619361453355243, 0.47404772413959045]}
    - {mu0: 0, rank: 2, ndensity: 2, num_ms_combs: 1, mus: [1, 2], ns: [1, 2], ls: [0, 0], ms_combs: [0, 0], ctildes: [0.84574971635842566, 0.060084960594272874]}
    - {mu0: 0, rank: 2, ndensity: 2, num_ms_combs: 2, mus: [1, 2], ns: [1, 2], ls: [1, 1], ms_combs: [0, 0, 1, -1], ctildes: [-0.11979985536704373, -0.11245252063398506, 0.2395997107340874, 0.22490504126797006]}
    - {mu0: 0, rank: 2, ndensity: 2, num_ms_combs: 3, mus: [1, 2], ns: [1, 2], ls: [2, 2], ms_combs: [0, 0, 1, -1, 2, -2], ctildes: [-0.055985459273344251, 0.030975321810914547, 0.11197091854668852, -0.061950643621829109, -0.11197091854668854, 0.061950643621829123]}
    - {mu0: 0, rank: 2, ndensity: 2, num_ms_combs: 1, mus: [1, 2], ns: [1, 3], ls: [0, 0], ms_combs: [0, 0], ctildes: [2.527503320758306, 0.38957463611078036]}
    - {mu0: 0, rank: 2, ndensity: 2, num_ms_combs: 2, mus: [1, 2], ns: [1, 3], ls: [1, 1], ms_combs: [0, 0, 1, -1], ctildes: [-0.39077063602638173, -0.34514043382137044, 0.78154127205276325, 0.69028086764274066]}
    - {mu0: 0, rank: 2, ndensity: 2, num_ms_combs: 1, mus: [1, 2], ns: [2, 1], ls: [0, 0], ms_combs: [0, 0], ctildes: [-0.98827730618382881, -1.3799601573925109]}
    - {mu0: 0, rank: 2, ndensity: 2, num_ms_combs: 2, mus: [1, 2], ns: [2, 1], ls: [1, 1], ms_combs: [0, 0, 1, -1], ctildes: [-0.53979438810890323, 0.039955380904072517, 1.0795887762178062, -0.07991076180814502]}
    - {mu0: 0, rank: 2, ndensity: 2, num_ms_combs: 3, mus: [1, 2], ns: [2, 1], ls: [2, 2], ms_combs: [0, 0, 1, -1, 2, -2], ctildes: [-0.12873171162602393, 0.089546444651041779, 0.25746342325204791, -0.17909288930208356, -0.25746342325204796, 0.17909288930208361]}
    - {mu0: 0, rank: 2, ndensity: 2, num_ms_combs: 1, mus: [1, 2], ns: [2, 2], ls: [0, 0], ms_combs: [0, 0], ctildes: [-1.1349975957117104, -0.10290212897149366]}
    - {mu0: 0, rank: 2, ndensity: 2, num_ms_combs: 2, mus: [1, 2], ns: [2, 2], ls: [1, 1], ms_combs: [0, 0, 1, -1], ctildes: [0.33868644890726785, -0.31837026921134581, -0.67737289781453558, 0.63674053842269152]}
    - {mu0: 0, rank: 2, ndensity: 2, num_ms_combs: 1, mus: [1, 2], ns: [2, 3], ls: [0, 0], ms_combs: [0, 0], ctildes: [0.34526942303545149, -0.042791726984487646]}
    - {mu0: 0, rank: 2, ndensity: 2, num_ms_combs: 2, mus: [1, 2], ns: [2, 3], ls: [1, 1], ms_combs: [0, 0, 1, -1], ctildes: [-0.43049552610742092, 0.22391050065229437, 0.86099105221484162, -0.44782100130458868]}
    - {mu0: 0, rank: 2, ndensity: 2, num_ms_combs: 1, mus: [1, 2], ns: [3, 1], ls: [0, 0], ms_combs: [0, 0], ctildes: [0.52046770129674425, -0.51608398335095207]}
    - {mu0: 0, rank: 2, ndensity: 2, num_ms_combs: 2, mus: [1, 2], ns: [3, 1], ls: [1, 1], ms_combs: [0, 0, 1, -1], ctildes: [0.20611676170102328, -0.76528825422830926, -0.4122335234020465, 1.5305765084566183]}
    - {mu0: 0, rank: 2, ndensity: 2, num_ms_combs: 1, mus: [1, 2], ns: [3, 2], ls: [0, 0], ms_combs: [0, 0], ctildes: [0.23541191302531991, -0.10039400337627662]}
    - {mu0: 0, rank: 2, ndensity: 2, num_ms_combs: 2, mus: [1, 2], ns: [3, 2], ls: [1, 1], ms_combs: [0, 0, 1, -1], ctildes: [0.48606848999728042, -0.37647920967079707, -0.97213697999456061, 0.75295841934159402]}
    - {mu0: 0, rank: 2, ndensity: 2, num_ms_combs: 1, mus: [1, 2], ns: [3, 3], ls: [0, 0], ms_combs: [0, 0], ctildes: [0.0097435874350838714, -0.24013215075348462]}
    - {mu0: 0, rank: 2, ndensity: 2, num_ms_combs: 1, mus: [1, 3], ns: [1, 1], ls: [0, 0], ms_combs: [0, 0], ctildes: [0.47189186122970439, 0.27714113468788981]}
    - {mu0: 0, rank: 2, ndensity: 2, num_ms_combs: 2, mus: [1, 3], ns: [1, 1], ls: [1, 1], ms_combs: [0, 0, 1, -1], ctildes: [-0.072753733646877108, 0.18776620080427353, 0.14550746729375419, -0.37553240160854701]}
    - {mu0: 0, rank: 2, ndensity: 2, num_ms_combs: 3, mus: [1, 3], ns: [1, 1], ls: [2, 2], ms_combs: [0, 0, 1, -1, 2, -2], ctildes: [0.10479905092745068, -0.17025656611118534, -0.20959810185490138, 0.34051313222237073, 0.20959810185490141, -0.34051313222237078]}
    - {mu0: 0, rank: 2, ndensity: 2, num_ms_combs: 1, mus: [1, 3], ns: [1, 2], ls: [0, 0], ms_combs: [0, 0], ctildes: [-0.019715303434434946, 0.29578458357996418]}
    - {mu0: 0, rank: 2, ndensity: 2, num_ms_combs: 2, mus: [1, 3], ns: [1, 2], ls: [1, 1], ms_combs: [0, 0, 1, -1], ctildes: [-0.12281702434571597, 0.20736400727609439, 0.24563404869143191, -0.41472801455218872]}
    - {mu0: 0, rank: 2, ndensity: 2, num_ms_combs: 3, mus: [1, 3], ns: [1, 2], ls: [2, 2], ms_combs: [0, 0, 1, -1, 2, -2], ctildes: [0.075020232702745979, -0.11893269584465019, -0.15004046540549199, 0.2378653916893004, 0.15004046540549201, -0.23786539168930046]}
    - {mu0: 0, rank: 2, ndensity: 2, num_ms_combs: 1, mus: [1, 3], ns: [1, 3], ls: [0, 0], ms_combs: [0, 0], ctildes: [0.31164276084158443, -0.25862115404918146]}
    - {mu0: 0, rank: 2, ndensity: 2, num_ms_combs: 2, mus: [1, 3], ns: [1, 3], ls: [1, 1], ms_combs: [0, 0, 1, -1], ctildes: [-0.071695485536327944, 0.5178900903025403, 0.14339097107265586, -1.0357801806050804]}
    - {mu0: 0, rank: 2, ndensity: 2, num_ms_combs: 1, mus: [1, 3], ns: [2, 1], ls: [0, 0], ms_combs: [0, 0], ctildes: [1.0568773968225247, 0.6775906053658175]}
    - {mu0: 0, rank: 2, ndensity: 2, num_ms_combs: 2, mus: [1, 3], ns: [2, 1], ls: [1, 1], ms_combs: [0, 0, 1, -1], ctildes: [-0.22924030200600548, 0.17075630347380444, 0.45848060401201091, -0.34151260694760882]}
    - {mu0: 0, rank: 2, ndensity: 2, num_ms_combs: 3, mus: [1, 3], ns: [2, 1], ls: [2, 2], ms_combs: [0, 0, 1, -1, 2, -2], ctildes: [-0.0077105493847280633, -0.14551282929417436, 0.015421098769456128, 0.29102565858834872, -0.015421098769456132, -0.29102565858834883]}
    - {mu0: 0, rank: 2, ndensity: 2, num_ms_combs: 1, mus: [1, 3], ns: [2, 2], ls: [0, 0], ms_combs: [0, 0], ctildes: [-1.1703216764067783, 0.21459637997516337]}
    - {mu0: 0, rank: 2, ndensity: 2, num_ms_combs: 2, mus: [1, 3], ns: [2, 2], ls: [1, 1], ms_combs: [0, 0, 1, -1], ctildes: [0.26627218197340796, 0.38366786511793632, -0.53254436394681581, -0.76733573023587243]}
    - {mu0: 0, rank: 2, ndensity: 2, num_ms_combs: 1, mus: [1, 3], ns: [2, 3], ls: [0, 0], ms_combs: [0, 0], ctildes: [-0.31415377188896076, 0.073949594176860423]}
    - {mu0: 0, rank: 2, ndensity: 2, num_ms_combs: 2, mus: [1, 3], ns: [2, 3], ls: [1, 1], ms_combs: [0, 0, 1, -1], ctildes: [-0.079986661032741657, 0.11575450724344209, 0.15997332206548329, -0.23150901448688413]}
    - {mu0: 0, rank: 2, ndensity: 2, num_ms_combs: 1, mus: [1, 3], ns: [3, 1], ls: [0, 0], ms_combs: [0, 0], ctildes: [0.74609328080518733, 0.43866371085409672]}
    - {mu0: 0, rank: 2, ndensity: 2, num_ms_combs: 2, mus: [1, 3], ns: [3, 1], ls: [1, 1], ms_combs: [0, 0, 1, -1], ctildes: [0.25578680772211976, 0.026255381193216278, -0.5115736154442394, -0.052510762386432541]}
    - {mu0: 0, rank: 2, ndensity: 2, num_ms_combs: 1, mus: [1, 3], ns: [3, 2], ls: [0, 0], ms_combs: [0, 0], ctildes: [-0.44030950730274288, 0.05740123669684468]}
    - {mu0: 0, rank: 2, ndensity: 2, num_ms_combs: 2, mus: [1, 3], ns: [3, 2], ls: [1, 1], ms_combs: [0, 0, 1, -1], ctildes: [0.2143303958278153, -0.15114974221549335, -0.42866079165563048, 0.30229948443098659]}
    - {mu0: 0, rank: 2, ndensity: 2, num_ms_combs: 1, mus: [1, 3], ns: [3, 3], ls: [0, 0], ms_combs: [0, 0], ctildes: [-0.04248402768145907, -0.18221881067309417]}
    - {mu0: 0, rank: 2, ndensity: 2, num_ms_combs: 1, mus: [2, 2], ns: [1, 1], ls: [0, 0], ms_combs: [0, 0], ctildes: [1.872568138166423, 1.5665139899515197]}
    - {mu0: 0, rank: 2, ndensity: 2, num_ms_combs: 2, mus: [2, 2], ns: [1, 1], ls: [1, 1], ms_combs: [0, 0, 1, -1], ctildes: [-0.45572191610520363, 0.44420345929169186, 0.91144383221040715, -0.8884069185833835]}
    - {mu0: 0, rank: 2, ndensity: 2, num_ms_combs: 3, mus: [2, 2], ns: [1, 1], ls: [2, 2], ms_combs: [0, 0, 1, -1, 2, -2], ctildes: [0.061171032291152803, 0.31099339945357896, -0.12234206458230562, -0.62198679890715791, 0.12234206458230565, 0.62198679890715813]}
    - {mu0: 0, rank: 2, ndensity: 2, num_ms_combs: 1, mus: [2, 2], ns: [1, 2], ls: [0, 0], ms_combs: [0, 0], ctildes: [0.93774306873275792, -0.14155079287198974]}
    - {mu0: 0, rank: 2, ndensity: 2, num_ms_combs: 2, mus: [2, 2], ns: [1, 2], ls: [1, 1], ms_combs: [0, 0, 1, -1], ctildes: [-0.46387463892020486, 0.6042716863791856, 0.92774927784040961, -1.208543372758371]}
    - {mu0: 0, rank: 2, ndensity: 2, num_ms_combs: 3, mus: [2, 2], ns: [1, 2], ls: [2, 2], ms_combs: [0, 0, 1, -1, 2, -2], ctildes: [-0.43477121608061631, 0.032520693022845229, 0.86954243216123273, -0.065041386045690458, -0.86954243216123295, 0.065041386045690472]}
    - {mu0: 0, rank: 2, ndensity: 2, num_ms_combs: 1, mus: [2, 2], ns: [1, 3], ls: [0, 0], ms_combs: [0, 0], ctildes: [-0.40844969923334501, -1.4160361810037632]}
    - {mu0: 0, rank: 2, ndensity: 2, num_ms_combs: 2, mus: [2, 2], ns: [1, 3], ls: [1, 1], ms_combs: [0, 0, 1, -1], ctildes: [0.60050266430658183, 0.030441787937668274, -1.2010053286131634, -0.060883575875336535]}
    - {mu0: 0, rank: 2, ndensity: 2, num_ms_combs: 1, mus: [2, 2], ns: [1, 4], ls: [0, 0], ms_combs: [0, 0], ctildes: [1.6664204483210485, 1.7432007812850956]}
    - {mu0: 0, rank: 2, ndensity: 2, num_ms_combs: 2, mus: [2, 2], ns: [1, 4], ls: [1, 1], ms_combs: [0, 0, 1, -1], ctildes: [-0.062806672089416302, 0.046110369287522338, 0.12561334417883258, -0.092220738575044661]}
    - {mu0: 0, rank: 2, ndensity: 2, num_ms_combs: 1, mus: [2, 2], ns: [1, 5], ls: [0, 0], ms_combs: [0, 0], ctildes: [-0.49623962288269663, -1.1761906033763485]}
    - {mu0: 0, rank: 2, ndensity: 2, num_ms_combs: 1, mus: [2, 2], ns: [1, 6], ls: [0, 0], ms_combs: [0, 0], ctildes: [-0.25420823277497179, -0.063042868453474329]}
    - {mu0: 0, rank: 2, ndensity: 2, num_ms_combs: 1, mus: [2, 2], ns: [2, 2], ls: [0, 0], ms_combs: [0, 0], ctildes: [0.93617456181549619, 0.60663902861302987]}
    - {mu0: 0, rank: 2, ndensity: 2, num_ms_combs: 2, mus: [2, 2], ns: [2, 2], ls: [1, 1], ms_combs: [0, 0, 1, -1], ctildes: [-0.36679666040612285, 0.62245018998279744, 0.7335933208122456, -1.2449003799655947]}
    - {mu0: 0, rank: 2, ndensity: 2, num_ms_combs: 1, mus: [2, 2], ns: [2, 3], ls: [0, 0], ms_combs: [0, 0], ctildes: [0.24500191832751597, 0.072819595004786325]}
    - {mu0: 0, rank: 2, ndensity: 2, num_ms_combs: 2, mus: [2, 2], ns: [2, 3], ls: [1, 1], ms_combs: [0, 0, 1, -1], ctildes: [0.69478856949293522, -0.86855459035896665, -1.38957713898587, 1.7371091807179329]}
    - {mu0: 0, rank: 2, ndensity: 2, num_ms_combs: 1, mus: [2, 2], ns: [2, 4], ls: [0, 0], ms_combs: [0, 0], ctildes: [-1.5882388614724445, -0.42011838803323653]}
    - {mu0: 0, rank: 2, ndensity: 2, num_ms_combs: 1, mus: [2, 2], ns: [3, 3], ls: [0, 0], ms_combs: [0, 0], ctildes: [0.12296445824088954, 0.17022422074712493]}
    - {mu0: 0, rank: 2, ndensity: 2, num_ms_combs: 1, mus: [2, 3], ns: [1, 1], ls: [0, 0], ms_combs: [0, 0], ctildes: [0.77574252147318601, -0.1345801377972875]}
    - {mu0: 0, rank: 2, ndensity: 2, num_ms_combs: 2, mus: [2, 3], ns: [1, 1], ls: [1, 1], ms_combs: [0, 0, 1, -1], ctildes: [0.59070307279820922, 0.30306542088671085, -1.1814061455964182, -0.60613084177342158]}
    - {mu0: 0, rank: 2, ndensity: 2, num_ms_combs: 3, mus: [2, 3], ns: [1, 1], ls: [2, 2], ms_combs: [0, 0, 1, -1, 2, -2], ctildes: [0.027612389945826456, 0.092413120810136029, -0.05522477989165292, -0.18482624162027209, 0.055224779891652934, 0.18482624162027214]}
    - {mu0: 0, rank: 2, ndensity: 2, num_ms_combs: 1, mus: [2, 3], ns: [1, 2], ls: [0, 0], ms_combs: [0, 0], ctildes: [-1.4424065265449553, -1.0154007162499215]}
    - {mu0: 0, rank: 2, ndensity: 2, num_ms_combs: 2, mus: [2, 3], ns: [1, 2], ls: [1, 1], ms_combs: [0, 0, 1, -1], ctildes: [0.18194251137408088, 0.15682900579985193, -0.3638850227481617, -0.3136580115997038]}
    - {mu0: 0, rank: 2, ndensity: 2, num_ms_combs: 3, mus: [2, 3], ns: [1, 2], ls: [2, 2], ms_combs: [0, 0, 1, -1, 2, -2], ctildes: [0.11398112358295075, -0.096351477940802649, -0.22796224716590152, 0.1927029558816053, 0.22796224716590158, -0.19270295588160535]}
    - {mu0: 0, rank: 2, ndensity: 2, num_ms_combs: 1, mus: [2, 3], ns: [1, 3], ls: [0, 0], ms_combs: [0, 0], ctildes: [1.3872756817772587, 1.1959342726690176]}
    - {mu0: 0, rank: 2, ndensity: 2, num_ms_combs: 2, mus: [2, 3], ns: [1, 3], ls: [1, 1], ms_combs: [0, 0, 1, -1], ctildes: [0.15719562339842544, -0.74190303734726315, -0.31439124679685082, 1.4838060746945261]}
    - {mu0: 0, rank: 2, ndensity: 2, num_ms_combs: 1, mus: [2, 3], ns: [2, 1], ls: [0, 0], ms_combs: [0, 0], ctildes: [1.2020269958515895, 0.52908999278017532]}
    - {mu0: 0, rank: 2, ndensity: 2, num_ms_combs: 2, mus: [2, 3], ns: [2, 1], ls: [1, 1], ms_combs: [0, 0, 1, -1], ctildes: [-0.2803019976481248, -0.13049408969471057, 0.56060399529624949, 0.26098817938942109]}
    - {mu0: 0, rank: 2, ndensity: 2, num_ms_combs: 3, mus: [2, 3], ns: [2, 1], ls: [2, 2], ms_combs: [0, 0, 1, -1, 2, -2], ctildes: [-0.0076759896003306309, -0.28143861484427751, 0.015351979200661264, 0.56287722968855514, -0.015351979200661267, -0.56287722968855525]}
    - {mu0: 0, rank: 2, ndensity: 2, num_ms_combs: 1, mus: [2, 3], ns: [2, 2], ls: [0, 0], ms_combs: [0, 0], ctildes: [-0.79708235390596949, -0.37506851458084878]}
    - {mu0: 0, rank: 2, ndensity: 2, num_ms_combs: 2, mus: [2, 3], ns: [2, 2], ls: [1, 1], ms_combs: [0, 0, 1, -1], ctildes: [-0.16453172732164692, -0.56479507596780532, 0.32906345464329378, 1.1295901519356104]}
    - {mu0: 0, rank: 2, ndensity: 2, num_ms_combs: 1, mus: [2, 3], ns: [2, 3], ls: [0, 0], ms_combs: [0, 0], ctildes: [-0.73773624851687958, -0.88626683844514165]}
    - {mu0: 0, rank: 2, ndensity: 2, num_ms_combs: 2, mus: [2, 3], ns: [2, 3], ls: [1, 1], ms_combs: [0, 0, 1, -1], ctildes: [0.47111694583789926, -0.27148628195167734, -0.94223389167579841, 0.54297256390335458]}
    - {mu0: 0, rank: 2, ndensity: 2, num_ms_combs: 1, mus: [2, 3], ns: [3, 1], ls: [0, 0], ms_combs: [0, 0], ctildes: [0.76006514396781388, -0.15383129027405337]}
    - {mu0: 0, rank: 2, ndensity: 2, num_ms_combs: 2, mus: [2, 3], ns: [3, 1], ls: [1, 1], ms_combs: [0, 0, 1, -1], ctildes: [-0.037326570548200183, -0.11244182760137193, 0.074653141096400352, 0.22488365520274381]}
    - {mu0: 0, rank: 2, ndensity: 2, num_ms_combs: 1, mus: [2, 3], ns: [3, 2], ls: [0, 0], ms_combs: [0, 0], ctildes: [-0.12297860711959303, -0.31063053281268571]}
    - {mu0: 0, rank: 2, ndensity: 2, num_ms_combs: 2, mus: [2, 3], ns: [3, 2], ls: [1, 1], ms_combs: [0, 0, 1, -1], ctildes: [0.039708437142327323, -0.23060337866844013, -0.079416874284654632, 0.46120675733688016]}
    - {mu0: 0, rank: 2, ndensity: 2, num_ms_combs: 1, mus: [2, 3], ns: [3, 3], ls: [0, 0], ms_combs: [0, 0], ctildes: [0.030850815233471413, 0.066792011261689987]}
    - {mu0: 0, rank: 2, ndensity: 2, num_ms_combs: 1, mus: [3, 3], ns: [1, 1], ls: [0, 0], ms_combs: [0, 0], ctildes: [1.0518881807948521, 0.28569666156703077]}
    - {mu0: 0, rank: 2, ndensity: 2, num_ms_combs: 2, mus: [3, 3], ns: [1, 1], ls: [1, 1], ms_combs: [0, 0, 1, -1], ctildes: [0.93025550638695276, 0.62362334706912415, -1.8605110127739053, -1.2472466941382481]}
    - {mu0: 0, rank: 2, ndensity: 2, num_ms_combs: 3, mus: [3, 3], ns: [1, 1], ls: [2, 2], ms_combs: [0, 0, 1, -1, 2, -2], ctildes: [0.34364585914787765, 0.062152351724019457, -0.68729171829575531, -0.12430470344803893, 0.68729171829575553, 0.12430470344803896]}
    - {mu0: 0, rank: 2, ndensity: 2, num_ms_combs: 1, mus: [3, 3], ns: [1, 2], ls: [0, 0], ms_combs: [0, 0], ctildes: [-1.0317520791193013, -0.35113716092426078]}
    - {mu0: 0, rank: 2, ndensity: 2, num_ms_combs: 2, mus: [3, 3], ns: [1, 2], ls: [1, 1], ms_combs: [0, 0, 1, -1], ctildes: [-0.133167199530276, 0.21306805795224248, 0.26633439906055195, -0.42613611590448486]}
    - {mu0: 0, rank: 2, ndensity: 2, num_ms_combs: 3, mus: [3, 3], ns: [1, 2], ls: [2, 2], ms_combs: [0, 0, 1, -1, 2, -2], ctildes: [-0.35785320954033822, 0.26982201562536495, 0.71570641908067656, -0.53964403125073002, -0.71570641908067667, 0.53964403125073013]}
